{"learner":{"attributes":{"best_iteration":"34","best_score":"0.6648505872869646"},"feature_names":["context_script_injection","context_event_handler","context_js_uri","context_tag_injection","context_attribute","context_template_injection","context_dom_sink","context_attribute_escape","waf_cloudflare","waf_akamai","waf_aws_waf","waf_imperva","waf_f5","waf_modsecurity","waf_wordfence","waf_sucuri","waf_none","payload_length","tag_count","event_handler_count","quote_count","has_auto_trigger","has_eval","has_dom_sink","has_js_uri","has_comment","special_char_diversity","encoding_depth","technique_original","technique_mutated","technique_obfuscated","technique_index","severity_value","char_coverage_ratio","length_bucket","context_technique_alignment"],"feature_types":[],"gradient_booster":{"model":{"gbtree_model_param":{"num_parallel_tree":"1","num_trees":"85"},"iteration_indptr":[0,1,2,3,4,5,6,7,8,9,10,11,12,13,14,15,16,17,18,19,20,21,22,23,24,25,26,27,28,29,30,31,32,33,34,35,36,37,38,39,40,41,42,43,44,45,46,47,48,49,50,51,52,53,54,55,56,57,58,59,60,61,62,63,64,65,66,67,68,69,70,71,72,73,74,75,76,77,78,79,80,81,82,83,84,85],"tree_info":[0,0,0,0,0,0,0,0,0,0,0,0,0,0,0,0,0,0,0,0,0,0,0,0,0,0,0,0,0,0,0,0,0,0,0,0,0,0,0,0,0,0,0,0,0,0,0,0,0,0,0,0,0,0,0,0,0,0,0,0,0,0,0,0,0,0,0,0,0,0,0,0,0,0,0,0,0,0,0,0,0,0,0,0,0],"trees":[{"base_weights":[-2.9379933E-3,7.120783E-2,-4.7163746E-1,1.2832154E-1,-3.4353167E-1,3.8258452E-2,-5.248918E-1,1.0254533E-1,8.6475945E-1,-4.5650238E-1,2.3475885E-1,6.378823E-2,-6.179284E-1,1.5867454E-1,-2.8175196E-1,-5.8509994E-2,1.2857436E-1,-5.4162705E-1,-1.5584429E-2,5.5851396E-2,-4.967825E-2,-1.2894377E-2,3.219606E-2,-5.228044E-1,-9.0778756E-1,2.2375993E-1,-2.1352895E-1,5.7562407E-2,-3.9061126E-1,-6.244032E-1,-8.141371E-2,4.3548387E-2,-4.099379E-2,-4.412838E-1,-1.0188959E-1,-3.7351567E-1,-1.2100347E0,3.176252E-2,-1.3332376E-2,-5.871089E-2,-8.648893E-3,-8.5338764E-2,-1.7539976E-2,-7.9751655E-2,-2.6486685E-2,-5.8509994E-2,3.7145853E-2,-3.4950152E-2,-8.91599E-2,-9.2462316E-2,2.7555555E-2,-6.891089E-2,-1.4855793E-1],"categories":[],"categories_nodes":[],"categories_segments":[],"categories_sizes":[],"default_left":[0,0,0,0,0,0,0,0,0,0,0,0,0,0,0,0,0,0,0,0,0,0,0,0,0,0,0,0,0,0,0,0,0,0,0,0,0,0,0,0,0,0,0,0,0,0,0,0,0,0,0,0,0],"id":0,"left_children":[1,3,5,7,9,-1,11,13,15,17,19,21,23,25,27,-1,-1,29,31,-1,-1,-1,-1,33,35,37,39,-1,41,43,45,-1,-1,47,-1,49,51,-1,-1,-1,-1,-1,-1,-1,-1,-1,-1,-1,-1,-1,-1,-1,-1],"loss_changes":[2.1617685E1,1.2767098E1,4.065916E0,8.886997E0,4.372301E0,0E0,4.4427967E0,9.923517E0,1.04300785E1,2.0542278E0,2.960835E0,6.3258433E-1,1.4422646E0,9.743966E0,5.7060156E0,0E0,0E0,1.7027988E0,1.9435711E0,0E0,0E0,0E0,0E0,1.762579E0,2.1026144E0,1.1477602E1,2.8008344E0,0E0,5.099577E0,2.2078037E0,2.0803978E0,0E0,0E0,1.7030554E0,0E0,2.8168225E0,3.6245346E-1,0E0,0E0,0E0,0E0,0E0,0E0,0E0,0E0,0E0,0E0,0E0,0E0,0E0,0E0,0E0,0E0],"parents":[2147483647,0,0,1,1,2,2,3,3,4,4,6,6,7,7,8,8,9,9,10,10,11,11,12,12,13,13,14,14,17,17,18,18,23,23,24,24,25,25,26,26,28,28,29,29,30,30,33,33,35,35,36,36],"right_children":[2,4,6,8,10,-1,12,14,16,18,20,22,24,26,28,-1,-1,30,32,-1,-1,-1,-1,34,36,38,40,-1,42,44,46,-1,-1,48,-1,50,52,-1,-1,-1,-1,-1,-1,-1,-1,-1,-1,-1,-1,-1,-1,-1,-1],"split_conditions":[1E0,1E0,5E0,3E0,1E0,3.8258452E-2,2E-1,1E0,3.7E1,4.2E1,6E0,2.2E1,4E0,1E0,3E0,-5.8509994E-2,1.2857436E-1,5E0,6E0,5.5851396E-2,-4.967825E-2,-1.2894377E-2,3.219606E-2,1E0,2.5E1,3.9E1,5E0,5.7562407E-2,5E0,1E0,2.5E1,4.3548387E-2,-4.099379E-2,1E0,-1.0188959E-1,7E0,1E0,3.176252E-2,-1.3332376E-2,-5.871089E-2,-8.648893E-3,-8.5338764E-2,-1.7539976E-2,-7.9751655E-2,-2.6486685E-2,-5.8509994E-2,3.7145853E-2,-3.4950152E-2,-8.91599E-2,-9.2462316E-2,2.7555555E-2,-6.891089E-2,-1.4855793E-1],"split_indices":[7,15,26,27,4,0,33,13,17,17,26,17,31,5,26,0,0,31,26,0,0,0,0,9,17,17,26,0,26,29,17,0,0,13,0,31,20,0,0,0,0,0,0,0,0,0,0,0,0,0,0,0,0],"split_type":[0,0,0,0,0,0,0,0,0,0,0,0,0,0,0,0,0,0,0,0,0,0,0,0,0,0,0,0,0,0,0,0,0,0,0,0,0,0,0,0,0,0,0,0,0,0,0,0,0,0,0,0,0],"sum_hessian":[6.2008765E2,5.361237E2,8.396392E1,4.7183762E2,6.428608E1,4.564433E0,7.939948E1,4.5698196E2,1.485567E1,5.3956184E1,1.0329897E1,1.0878866E1,6.8520615E1,3.9925516E2,5.7726803E1,3.2551546E0,1.1600515E1,4.5033504E1,8.92268E0,7.3247423E0,3.0051546E0,6.515464E0,4.363402E0,5.370103E1,1.4819588E1,3.401701E2,5.9085052E1,6.0206184E0,5.1706184E1,3.786598E1,7.167526E0,4.113402E0,4.8092785E0,4.7744846E1,5.9561853E0,6.162371E0,8.657216E0,2.6945102E2,7.071907E1,1.4074742E1,4.5010307E1,1.5471649E1,3.6234535E1,2.4737114E1,1.3128866E1,3.2551546E0,3.9123712E0,4.1136597E1,6.6082473E0,3.1030927E0,3.0592782E0,4.2061853E0,4.4510307E0],"tree_param":{"num_deleted":"0","num_feature":"36","num_nodes":"53","size_leaf_vector":"1"}},{"base_weights":[-3.4027635E-3,-7.7961266E-2,5.793168E-1,-1.4194092E-3,-5.9503675E-1,-7.489476E-1,7.549945E-1,1.0006051E-1,-5.3948873E-1,-4.439687E-1,-9.2133915E-1,-3.2029644E-2,-1.1423732E-1,8.506976E-1,-2.5024086E-2,2.8996034E-2,6.336034E-1,-4.3077442E-1,-1.0622581E-1,-5.554113E-1,2.5897357E-1,-9.990804E-1,-3.6445674E-2,9.272472E-1,-2.7984668E-2,-3.6976375E-2,4.144453E-1,8.775644E-1,-4.6659067E-1,-5.474628E-1,-7.43784E-2,-6.446211E-1,7.574799E-3,-8.9540165E-3,5.5812825E-2,-1.0680435E0,-4.867955E-2,9.872331E-1,2.60886E-2,8.62664E-3,-2.0704059E-2,5.2681603E-2,9.175312E-3,5.507009E-2,1.4583254E-1,-9.422543E-3,-9.120902E-2,-3.8052157E-2,-8.2514666E-2,2.5953634E-2,-2.9589785E-2,-7.37049E-2,-2.1481069E-2,-1.2137562E-1,-5.7793766E-2,1.084803E-1,4.77227E-2],"categories":[],"categories_nodes":[],"categories_segments":[],"categories_sizes":[],"default_left":[0,0,0,0,0,0,0,0,0,0,0,0,0,0,0,0,0,0,0,0,0,0,0,0,0,0,0,0,0,0,0,0,0,0,0,0,0,0,0,0,0,0,0,0,0,0,0,0,0,0,0,0,0,0,0,0,0],"id":1,"left_children":[1,3,5,7,9,11,13,15,17,19,21,-1,-1,23,-1,25,27,29,-1,31,33,35,-1,37,-1,39,41,43,45,47,49,51,-1,-1,-1,53,-1,55,-1,-1,-1,-1,-1,-1,-1,-1,-1,-1,-1,-1,-1,-1,-1,-1,-1,-1,-1],"loss_changes":[2.6909176E1,2.1729929E1,1.6959917E1,2.622359E1,3.0806923E0,1.1027999E0,6.230358E0,1.5302116E1,3.8732681E0,4.0858717E0,5.6552887E-1,0E0,0E0,5.2217636E0,0E0,9.109237E0,1.3143934E1,2.6527681E0,0E0,2.5123672E0,8.390179E-1,1.254921E-1,0E0,1.8983383E0,0E0,6.4371085E0,1.8497791E0,6.634615E0,1.4508564E0,1.9405708E0,1.3440496E0,1.3687515E0,0E0,0E0,0E0,3.8857841E-1,0E0,1.9266319E0,0E0,0E0,0E0,0E0,0E0,0E0,0E0,0E0,0E0,0E0,0E0,0E0,0E0,0E0,0E0,0E0,0E0,0E0,0E0],"parents":[2147483647,0,0,1,1,2,2,3,3,4,4,5,5,6,6,7,7,8,8,9,9,10,10,13,13,15,15,16,16,17,17,19,19,20,20,21,21,23,23,25,25,26,26,27,27,28,28,29,29,30,30,31,31,35,35,37,37],"right_children":[2,4,6,8,10,12,14,16,18,20,22,-1,-1,24,-1,26,28,30,-1,32,34,36,-1,38,-1,40,42,44,46,48,50,52,-1,-1,-1,54,-1,56,-1,-1,-1,-1,-1,-1,-1,-1,-1,-1,-1,-1,-1,-1,-1,-1,-1,-1,-1],"split_conditions":[1E0,1E0,1.9E1,1E0,4.4E1,1.4E1,1E0,1E0,1E0,1E0,1E0,-3.2029644E-2,-1.1423732E-1,5.4E1,-2.5024086E-2,1E0,1E0,1E0,-1.0622581E-1,1E0,2.2E1,1E0,-3.6445674E-2,1E0,-2.7984668E-2,1E0,3.6E1,2E0,2.2E1,1E0,2.2E1,1E0,7.574799E-3,-8.9540165E-3,5.5812825E-2,1E0,-4.867955E-2,1E0,2.60886E-2,8.62664E-3,-2.0704059E-2,5.2681603E-2,9.175312E-3,5.507009E-2,1.4583254E-1,-9.422543E-3,-9.120902E-2,-3.8052157E-2,-8.2514666E-2,2.5953634E-2,-2.9589785E-2,-7.37049E-2,-2.1481069E-2,-1.2137562E-1,-5.7793766E-2,1.084803E-1,4.77227E-2],"split_indices":[12,6,17,7,17,17,5,16,9,8,15,0,0,17,0,10,5,29,0,9,17,9,0,6,0,28,17,20,17,32,17,14,0,0,0,29,0,7,0,0,0,0,0,0,0,0,0,0,0,0,0,0,0,0,0,0,0],"split_type":[0,0,0,0,0,0,0,0,0,0,0,0,0,0,0,0,0,0,0,0,0,0,0,0,0,0,0,0,0,0,0,0,0,0,0,0,0,0,0,0,0,0,0,0,0,0,0,0,0,0,0,0,0,0,0,0,0],"sum_hessian":[6.173211E2,5.480631E2,6.9258026E1,4.7826852E2,6.9794586E1,7.7089562E0,6.1549072E1,4.0306454E2,7.5203964E1,4.9321056E1,2.047353E1,4.5575094E0,3.1514473E0,5.6339066E1,5.210006E0,3.5661948E2,4.6445072E1,6.3767086E1,1.143688E1,4.275299E1,6.568066E0,1.726874E1,3.20479E0,5.293466E1,3.4044065E0,3.0527374E2,5.1345726E1,3.8181026E1,8.264045E0,4.7634773E1,1.613231E1,3.7439816E1,5.313176E0,3.3574004E0,3.2106657E0,1.4263718E1,3.005021E0,4.8121254E1,4.813406E0,1.7728844E2,1.2798531E2,3.7614655E1,1.37310705E1,2.5677483E1,1.2503544E1,5.161432E0,3.1026132E0,3.1229935E1,1.640484E1,6.3654776E0,9.766834E0,3.0225248E1,7.2145658E0,9.856712E0,4.407006E0,3.9447475E1,8.6737795E0],"tree_param":{"num_deleted":"0","num_feature":"36","num_nodes":"57","size_leaf_vector":"1"}},{"base_weights":[9.646313E-3,8.771254E-2,-4.6673813E-1,1.7870268E-1,-4.378985E-1,-5.54049E-1,2.65353E-1,1.0950151E-1,7.2471917E-1,-5.012852E-1,1.8369241E-1,-6.3641226E-1,1.3887663E-1,7.271179E-2,-3.6555428E-2,5.3153165E-2,5.761473E-1,9.319833E-1,-1.9199684E-1,-7.274264E-2,-5.844817E-1,-1.4140437E-2,4.7833875E-2,3.2896273E-2,-7.051384E-1,4.3594684E-2,-2.811423E-2,1.7307231E-2,9.3323684E-1,8.365357E-1,-5.4196495E-1,1.0770855E0,3.958106E-1,-6.2118977E-2,4.0206715E-2,-4.7172535E-2,3.6952075E-2,-6.32977E-1,-1.2966573E-2,-6.050487E-1,-8.578407E-1,-2.3111682E-3,4.729857E-2,1.1823515E-1,3.1389704E-3,9.907822E-2,2.8636103E-2,-9.154871E-2,-3.6824185E-3,7.469553E-2,1.3407347E-1,-1.2545965E-2,8.731584E-2,-4.982306E-2,-8.977176E-2,-5.1253807E-2,-1.04982756E-1,-9.454508E-2,-4.252891E-2],"categories":[],"categories_nodes":[],"categories_segments":[],"categories_sizes":[],"default_left":[0,0,0,0,0,0,0,0,0,0,0,0,0,0,0,0,0,0,0,0,0,0,0,0,0,0,0,0,0,0,0,0,0,0,0,0,0,0,0,0,0,0,0,0,0,0,0,0,0,0,0,0,0,0,0,0,0,0,0],"id":2,"left_children":[1,3,5,7,9,11,13,15,17,19,21,23,25,-1,-1,27,29,31,33,35,37,-1,-1,-1,39,-1,-1,41,43,45,47,49,51,-1,-1,-1,-1,53,-1,55,57,-1,-1,-1,-1,-1,-1,-1,-1,-1,-1,-1,-1,-1,-1,-1,-1,-1,-1],"loss_changes":[2.3135998E1,2.5636818E1,5.746105E0,1.7160488E1,3.2107115E0,4.573414E0,3.18199E0,1.0648148E1,9.896317E0,2.5279179E0,8.393507E-1,4.9038525E0,1.2666881E0,0E0,0E0,1.1450206E1,1.3163042E1,2.8321915E0,2.8657665E0,2.444082E0,1.2464314E0,0E0,0E0,0E0,4.9053955E-1,0E0,0E0,6.462002E0,3.1543827E0,2.754486E0,1.6366487E0,1.8169937E0,2.7226198E0,0E0,0E0,0E0,0E0,1.4851685E0,0E0,1.2433596E0,4.9831772E-1,0E0,0E0,0E0,0E0,0E0,0E0,0E0,0E0,0E0,0E0,0E0,0E0,0E0,0E0,0E0,0E0,0E0,0E0],"parents":[2147483647,0,0,1,1,2,2,3,3,4,4,5,5,6,6,7,7,8,8,9,9,10,10,11,11,12,12,15,15,16,16,17,17,18,18,19,19,20,20,24,24,27,27,28,28,29,29,30,30,31,31,32,32,37,37,39,39,40,40],"right_children":[2,4,6,8,10,12,14,16,18,20,22,24,26,-1,-1,28,30,32,34,36,38,-1,-1,-1,40,-1,-1,42,44,46,48,50,52,-1,-1,-1,-1,54,-1,56,58,-1,-1,-1,-1,-1,-1,-1,-1,-1,-1,-1,-1,-1,-1,-1,-1,-1,-1],"split_conditions":[1E0,1E0,1E0,1E0,8E0,1E0,3.2E1,1E0,1E0,2E0,2.9E1,5E0,2.7E1,7.271179E-2,-3.6555428E-2,3E0,1E0,3.8E1,1E0,1E0,1E0,-1.4140437E-2,4.7833875E-2,3.2896273E-2,1E0,4.3594684E-2,-2.811423E-2,4.5E1,4E0,4E0,1E0,6E-1,4.4E1,-6.2118977E-2,4.0206715E-2,-4.7172535E-2,3.6952075E-2,1E0,-1.2966573E-2,1E0,1E0,-2.3111682E-3,4.729857E-2,1.1823515E-1,3.1389704E-3,9.907822E-2,2.8636103E-2,-9.154871E-2,-3.6824185E-3,7.469553E-2,1.3407347E-1,-1.2545965E-2,8.731584E-2,-4.982306E-2,-8.977176E-2,-5.1253807E-2,-1.04982756E-1,-9.454508E-2,-4.252891E-2],"split_indices":[7,6,16,12,31,12,17,16,5,20,17,26,17,0,0,27,5,17,20,19,9,0,0,0,30,0,0,17,31,31,28,35,17,0,0,0,0,19,0,9,9,0,0,0,0,0,0,0,0,0,0,0,0,0,0,0,0,0,0],"split_type":[0,0,0,0,0,0,0,0,0,0,0,0,0,0,0,0,0,0,0,0,0,0,0,0,0,0,0,0,0,0,0,0,0,0,0,0,0,0,0,0,0,0,0,0,0,0,0,0,0,0,0,0,0,0,0,0,0,0,0],"sum_hessian":[6.2000964E2,5.3341376E2,8.659587E1,4.5526196E2,7.815179E1,7.758598E1,9.009889E0,4.051185E2,5.014346E1,7.109538E1,7.056405E0,6.941648E1,8.169497E0,5.114246E0,3.8956432E0,3.6246417E2,4.2654324E1,4.0883324E1,9.260135E0,1.1863134E1,5.923225E1,3.6021147E0,3.4542904E0,4.361748E0,6.505473E1,4.7628884E0,3.4066083E0,3.492585E2,1.3205684E1,3.4801506E1,7.852817E0,3.1381765E1,9.501559E0,5.349572E0,3.910562E0,6.201714E0,5.6614203E0,5.3171104E1,6.0611463E0,4.2294685E1,2.2760052E1,3.2167505E2,2.758346E1,1.0103726E1,3.1019566E0,2.6555557E1,8.245947E0,4.0475492E0,3.8052678E0,1.5636074E1,1.5745691E1,4.8942E0,4.607359E0,3.7146446E1,1.6024658E1,3.679413E1,5.5005555E0,1.794057E1,4.81948E0],"tree_param":{"num_deleted":"0","num_feature":"36","num_nodes":"59","size_leaf_vector":"1"}},{"base_weights":[-8.042617E-3,-7.085622E-2,4.9392527E-1,-1.1470775E-2,-4.8024505E-1,-7.590017E-2,6.620671E-1,7.0061095E-2,-4.230123E-1,-3.4820884E-1,-8.202462E-1,8.6895865E-1,1.8992724E-1,1.9770296E-2,4.890889E-1,4.614837E-2,-4.8991713E-1,-4.365496E-1,6.1078977E-2,-9.8549E-2,-5.9155386E-2,5.8635753E-1,1.1846205E0,-7.9607956E-2,5.763028E-1,-2.4475597E-2,4.4851762E-1,6.748603E-1,-3.5606185E-1,5.69108E-2,-5.682512E-1,-3.2358554E-1,-8.457142E-1,-1.9988981E-1,9.4692415E-1,2.8102044E-2,1.3612418E-1,-3.6282602E-1,3.0209526E-2,9.689819E-2,-7.964215E-3,3.3324247E-3,-3.390736E-2,1.1296864E-1,1.8318824E-2,4.1810405E-2,1.18819915E-1,-2.5065546E-3,-6.785994E-2,-6.41366E-2,2.1546192E-3,-3.7762817E-2,8.0751785E-4,-2.6961435E-2,-1.0777918E-1,2.5960168E-2,-7.783334E-2,1.06390975E-1,5.4414667E-2,-9.022142E-3,-5.4880347E-2],"categories":[],"categories_nodes":[],"categories_segments":[],"categories_sizes":[],"default_left":[0,0,0,0,0,0,0,0,0,0,0,0,0,0,0,0,0,0,0,0,0,0,0,0,0,0,0,0,0,0,0,0,0,0,0,0,0,0,0,0,0,0,0,0,0,0,0,0,0,0,0,0,0,0,0,0,0,0,0,0,0],"id":3,"left_children":[1,3,5,7,9,-1,11,13,15,17,19,21,23,25,27,-1,29,31,-1,-1,-1,33,35,37,39,41,43,45,47,-1,49,51,53,55,57,-1,-1,59,-1,-1,-1,-1,-1,-1,-1,-1,-1,-1,-1,-1,-1,-1,-1,-1,-1,-1,-1,-1,-1,-1,-1],"loss_changes":[1.9798819E1,1.3559936E1,1.5215366E1,1.6414518E1,2.8865604E0,0E0,5.901909E0,8.597274E0,5.0127735E0,4.7257357E0,1.3607597E-1,3.1328583E0,2.1499147E0,6.948532E0,7.105176E0,0E0,6.602007E0,1.9808931E0,0E0,0E0,0E0,7.1684885E0,2.6956177E0,1.4911814E0,2.2469077E0,6.0563736E0,5.9852757E0,4.2732067E0,8.940326E-1,0E0,3.0743446E0,7.1721125E-1,1.0375161E0,2.478795E0,2.2457886E-1,0E0,0E0,3.454628E-1,0E0,0E0,0E0,0E0,0E0,0E0,0E0,0E0,0E0,0E0,0E0,0E0,0E0,0E0,0E0,0E0,0E0,0E0,0E0,0E0,0E0,0E0,0E0],"parents":[2147483647,0,0,1,1,2,2,3,3,4,4,6,6,7,7,8,8,9,9,10,10,11,11,12,12,13,13,14,14,16,16,17,17,21,21,22,22,23,23,24,24,25,25,26,26,27,27,28,28,30,30,31,31,32,32,33,33,34,34,37,37],"right_children":[2,4,6,8,10,-1,12,14,16,18,20,22,24,26,28,-1,30,32,-1,-1,-1,34,36,38,40,42,44,46,48,-1,50,52,54,56,58,-1,-1,60,-1,-1,-1,-1,-1,-1,-1,-1,-1,-1,-1,-1,-1,-1,-1,-1,-1,-1,-1,-1,-1,-1,-1],"split_conditions":[1E0,1E0,1.9E1,1E0,1E0,-7.590017E-2,3.5E1,1E0,1.6666667E-1,3.7E1,5.1E1,6E-1,1E0,4.5E1,1E0,4.614837E-2,5E0,1E0,6.1078977E-2,-9.8549E-2,-5.9155386E-2,1E0,1E0,6E0,6E0,1E0,1E0,2E0,1.9E1,5.69108E-2,1E0,1E0,2.2E1,1E0,2E0,2.8102044E-2,1.3612418E-1,2E0,3.0209526E-2,9.689819E-2,-7.964215E-3,3.3324247E-3,-3.390736E-2,1.1296864E-1,1.8318824E-2,4.1810405E-2,1.18819915E-1,-2.5065546E-3,-6.785994E-2,-6.41366E-2,2.1546192E-3,-3.7762817E-2,8.0751785E-4,-2.6961435E-2,-1.0777918E-1,2.5960168E-2,-7.783334E-2,1.06390975E-1,5.4414667E-2,-9.022142E-3,-5.4880347E-2],"split_indices":[12,6,17,7,23,0,17,16,33,17,17,35,24,17,5,0,26,13,0,0,0,28,21,26,26,15,21,20,17,0,16,8,17,20,20,0,0,31,0,0,0,0,0,0,0,0,0,0,0,0,0,0,0,0,0,0,0,0,0,0,0],"split_type":[0,0,0,0,0,0,0,0,0,0,0,0,0,0,0,0,0,0,0,0,0,0,0,0,0,0,0,0,0,0,0,0,0,0,0,0,0,0,0,0,0,0,0,0,0,0,0,0,0,0,0,0,0,0,0,0,0,0,0,0,0],"sum_hessian":[6.2581775E2,5.569792E2,6.8838585E1,4.873175E2,6.966167E1,7.729243E0,6.110934E1,4.0742996E2,7.988755E1,5.163417E1,1.8027494E1,4.1905773E1,1.9203568E1,3.6470593E2,4.2724026E1,5.2031527E0,7.46844E1,4.777778E1,3.856393E0,8.544414E0,9.483082E0,2.3618496E1,1.8287277E1,1.1779891E1,7.4236765E0,3.3144443E2,3.3261505E1,3.5190372E1,7.5336547E0,4.7122855E0,6.9972115E1,3.8844307E1,8.933472E0,7.5659328E0,1.6052563E1,3.413711E0,1.4873566E1,6.790728E0,4.9891634E0,4.3452053E0,3.0784714E0,2.8075626E2,5.0688164E1,8.410897E0,2.485061E1,2.4667118E1,1.05232525E1,4.249955E0,3.2836995E0,6.2176865E1,7.7952495E0,3.328248E1,5.561828E0,3.1861203E0,5.7473516E0,4.5237E0,3.0422325E0,1.1167547E1,4.8850164E0,3.3562608E0,3.434467E0],"tree_param":{"num_deleted":"0","num_feature":"36","num_nodes":"61","size_leaf_vector":"1"}},{"base_weights":[1.7263701E-3,-5.617526E-2,4.630184E-1,1.9588768E-3,-4.1352892E-1,-6.3236374E-1,6.140938E-1,6.607945E-2,-3.5632077E-1,-5.348256E-1,-6.596167E-2,-2.673824E-2,-9.899311E-2,3.6773497E-1,8.324442E-1,2.0950487E-2,4.0266064E-1,-2.384117E-1,-8.377499E-1,-6.088035E-1,4.0125255E-3,-2.3230116E-1,2.479905E-1,1.1193351E-1,2.3923612E-1,4.991431E-1,1.0921638E0,-2.1120243E-2,4.1159448E-1,6.325615E-1,-5.8213484E-1,-1.4028844E-1,-8.4651165E-2,-1.0170473E-1,-3.292678E-2,-2.1427973E-1,-7.8066814E-1,4.3891617E-3,-5.7435345E-2,3.672162E-2,9.455489E-3,3.3180925E-1,-2.5950937E-2,7.8274024E-1,4.1626126E-2,4.4723332E-2,1.216981E-1,5.7138703E-3,-1.6779987E-2,6.080397E-2,-1.7568922E-2,3.80411E-2,9.071299E-2,-7.531526E-2,-2.104695E-2,1.2231973E-2,-3.3987906E-2,-3.1808566E-2,1.8758463E-2,-2.6032433E-2,-9.075019E-2,1.4442267E-2,-1.1242537E-2,-1.3811012E-2,4.207532E-2,1.0567778E-1,3.2876197E-2,1.6502893E-2,-9.064524E-3],"categories":[],"categories_nodes":[],"categories_segments":[],"categories_sizes":[],"default_left":[0,0,0,0,0,0,0,0,0,0,0,0,0,0,0,0,0,0,0,0,0,0,0,0,0,0,0,0,0,0,0,0,0,0,0,0,0,0,0,0,0,0,0,0,0,0,0,0,0,0,0,0,0,0,0,0,0,0,0,0,0,0,0,0,0,0,0,0,0],"id":4,"left_children":[1,3,5,7,9,11,13,15,17,19,21,-1,-1,23,25,27,29,31,33,35,-1,37,39,-1,41,43,45,47,49,51,53,55,-1,-1,-1,57,59,61,-1,-1,-1,63,-1,65,67,-1,-1,-1,-1,-1,-1,-1,-1,-1,-1,-1,-1,-1,-1,-1,-1,-1,-1,-1,-1,-1,-1,-1,-1],"loss_changes":[1.658622E1,1.1463265E1,1.1848711E1,1.0948448E1,3.2196054E0,8.9503574E-1,2.994955E0,6.131283E0,3.9069529E0,2.452734E0,1.1602367E0,0E0,0E0,2.6900053E0,2.2025375E0,5.8836427E0,1.1175419E1,3.4321668E0,9.264393E-1,3.266676E0,0E0,1.1617055E0,1.07895195E-1,0E0,1.3523662E0,2.0100996E0,8.240547E-1,3.7249777E0,4.122146E0,2.3673553E0,4.488225E-1,2.790212E0,0E0,0E0,0E0,7.5824136E-1,2.0669823E0,1.7089596E-1,0E0,0E0,0E0,1.0432959E0,0E0,8.546753E-1,1.3053156E-1,0E0,0E0,0E0,0E0,0E0,0E0,0E0,0E0,0E0,0E0,0E0,0E0,0E0,0E0,0E0,0E0,0E0,0E0,0E0,0E0,0E0,0E0,0E0,0E0],"parents":[2147483647,0,0,1,1,2,2,3,3,4,4,5,5,6,6,7,7,8,8,9,9,10,10,13,13,14,14,15,15,16,16,17,17,18,18,19,19,21,21,22,22,24,24,25,25,26,26,27,27,28,28,29,29,30,30,31,31,35,35,36,36,37,37,41,41,43,43,44,44],"right_children":[2,4,6,8,10,12,14,16,18,20,22,-1,-1,24,26,28,30,32,34,36,-1,38,40,-1,42,44,46,48,50,52,54,56,-1,-1,-1,58,60,62,-1,-1,-1,64,-1,66,68,-1,-1,-1,-1,-1,-1,-1,-1,-1,-1,-1,-1,-1,-1,-1,-1,-1,-1,-1,-1,-1,-1,-1,-1],"split_conditions":[1E0,1E0,1.7E1,1E0,1E0,1.4E1,1E0,1E0,1E0,1E0,1E0,-2.673824E-2,-9.899311E-2,2E-1,1E0,4.3E1,1E0,1E0,3.2E1,1E0,4.0125255E-3,1E0,2.6E1,1.1193351E-1,1E0,2.4E1,4.2857143E-1,1E0,4E0,1E0,1E0,2.7E1,-8.4651165E-2,-1.0170473E-1,-3.292678E-2,3.3E1,3.3333334E-1,2.2E1,-5.7435345E-2,3.672162E-2,9.455489E-3,4E-1,-2.5950937E-2,1E0,2E0,4.4723332E-2,1.216981E-1,5.7138703E-3,-1.6779987E-2,6.080397E-2,-1.7568922E-2,3.80411E-2,9.071299E-2,-7.531526E-2,-2.104695E-2,1.2231973E-2,-3.3987906E-2,-3.1808566E-2,1.8758463E-2,-2.6032433E-2,-9.075019E-2,1.4442267E-2,-1.1242537E-2,-1.3811012E-2,4.207532E-2,1.0567778E-1,3.2876197E-2,1.6502893E-2,-9.064524E-3],"split_indices":[12,7,17,6,29,17,19,16,13,16,32,0,0,33,18,17,5,11,17,20,0,18,17,0,5,17,33,32,31,20,28,17,0,0,0,17,33,17,0,0,0,33,0,7,20,0,0,0,0,0,0,0,0,0,0,0,0,0,0,0,0,0,0,0,0,0,0,0,0],"split_type":[0,0,0,0,0,0,0,0,0,0,0,0,0,0,0,0,0,0,0,0,0,0,0,0,0,0,0,0,0,0,0,0,0,0,0,0,0,0,0,0,0,0,0,0,0,0,0,0,0,0,0,0,0,0,0,0,0,0,0,0,0,0,0,0,0,0,0,0,0],"sum_hessian":[6.1901056E2,5.5075745E2,6.825316E1,4.7455203E2,7.62054E1,7.8864174E0,6.0366737E1,4.0320654E2,7.134548E1,5.6091415E1,2.0113985E1,4.7676716E0,3.1187458E0,2.9625378E1,3.074136E1,3.5647278E2,4.6733788E1,5.8510593E1,1.2834889E1,4.964483E1,6.4465876E0,1.3317908E1,6.7960773E0,3.19963E0,2.6425749E1,1.47431555E1,1.5998205E1,3.2266864E2,3.3804134E1,3.8178642E1,8.555144E0,5.144079E1,7.0698056E0,8.749529E0,4.08536E0,1.5745971E1,3.3898857E1,8.454681E0,4.8632274E0,3.0403275E0,3.7557497E0,2.257101E1,3.854738E0,8.662662E0,6.080494E0,3.3373294E0,1.2660875E1,2.1080624E2,1.1186239E2,2.5304491E1,8.499643E0,2.1145298E1,1.7033344E1,5.1561646E0,3.39898E0,2.238078E1,2.9060007E1,1.26792555E1,3.0667152E0,7.241717E0,2.665714E1,3.7377021E0,4.716979E0,3.5042353E0,1.9066774E1,4.5738845E0,4.0887775E0,3.0175815E0,3.0629122E0],"tree_param":{"num_deleted":"0","num_feature":"36","num_nodes":"69","size_leaf_vector":"1"}},{"base_weights":[-8.436874E-3,3.7418123E-2,-3.4632733E-1,9.542609E-2,-3.1407478E-1,3.6885004E-2,-4.2760426E-1,1.4371958E-1,-2.2303753E-1,-5.0378877E-1,7.5055555E-2,-8.24052E-1,-2.7852398E-1,1.9548485E-1,-1.6695121E-1,-2.945038E-1,2.2931553E-1,-9.669989E-2,-4.1036636E-1,5.57623E-1,-1.4642915E-1,-9.576852E-1,-1.943749E-2,-3.8466918E-1,5.864767E-2,2.6041585E-1,-1.8363044E-1,-1.520707E-2,-5.802992E-1,-5.06418E-1,-5.38877E-2,-2.2805411E-2,8.334543E-2,-2.7808586E-1,-1.0281978E-1,7.275488E-2,2.2014694E-2,-8.661048E-2,9.056728E-2,-7.067565E-1,-1.4065854E-1,-2.66694E-1,-9.82265E-2,4.1279476E-2,1.906751E-2,9.4139904E-2,-4.2623904E-2,-1.0568579E-2,4.814498E-2,-9.740881E-2,-2.9772395E-2,-6.396101E-2,7.4343192E-3,2.5469536E-2,-2.9343514E-2,2.1132493E-2,-4.515329E-2,-2.1822702E-2,6.421127E-2,-3.464198E-2,-9.7647555E-2,1.909838E-2,-5.5059034E-2],"categories":[],"categories_nodes":[],"categories_segments":[],"categories_sizes":[],"default_left":[0,0,0,0,0,0,0,0,0,0,0,0,0,0,0,0,0,0,0,0,0,0,0,0,0,0,0,0,0,0,0,0,0,0,0,0,0,0,0,0,0,0,0,0,0,0,0,0,0,0,0,0,0,0,0,0,0,0,0,0,0,0,0],"id":5,"left_children":[1,3,5,7,9,-1,11,13,15,17,19,21,23,25,27,29,31,-1,33,35,37,39,-1,41,-1,43,45,47,49,51,53,-1,-1,55,-1,-1,-1,-1,57,59,-1,61,-1,-1,-1,-1,-1,-1,-1,-1,-1,-1,-1,-1,-1,-1,-1,-1,-1,-1,-1,-1,-1],"loss_changes":[9.6932335E0,1.126499E1,4.502988E0,7.3179607E0,5.8173294E0,0E0,3.7651463E0,6.6578026E0,2.096822E0,1.8862934E0,2.9171107E0,1.3251E0,4.8741193E0,8.75177E0,3.715569E0,2.75908E0,2.7118254E0,0E0,3.4442315E0,3.30348E-1,3.314896E0,6.4606476E-1,0E0,2.959887E0,0E0,3.1337852E0,1.4673277E1,2.0487928E0,1.4812593E0,2.2858777E0,2.049062E0,0E0,0E0,3.4029171E0,0E0,0E0,0E0,0E0,2.7254863E0,7.648263E-1,0E0,5.242372E0,0E0,0E0,0E0,0E0,0E0,0E0,0E0,0E0,0E0,0E0,0E0,0E0,0E0,0E0,0E0,0E0,0E0,0E0,0E0,0E0,0E0],"parents":[2147483647,0,0,1,1,2,2,3,3,4,4,6,6,7,7,8,8,9,9,10,10,11,11,12,12,13,13,14,14,15,15,16,16,18,18,19,19,20,20,21,21,23,23,25,25,26,26,27,27,28,28,29,29,30,30,33,33,38,38,39,39,41,41],"right_children":[2,4,6,8,10,-1,12,14,16,18,20,22,24,26,28,30,32,-1,34,36,38,40,-1,42,-1,44,46,48,50,52,54,-1,-1,56,-1,-1,-1,-1,58,60,-1,62,-1,-1,-1,-1,-1,-1,-1,-1,-1,-1,-1,-1,-1,-1,-1,-1,-1,-1,-1,-1,-1],"split_conditions":[1E0,1E0,3E0,1E0,1E0,3.6885004E-2,5E0,1E0,9E-1,4E0,2.4E1,8E-1,9E0,1E0,4.6E1,1E0,1.2E1,-9.669989E-2,1E0,6E0,1E0,4E0,-1.943749E-2,4E0,5.864767E-2,7E-1,1E0,1E0,6.25E-1,3.9E1,1.2E1,-2.2805411E-2,8.334543E-2,1E0,-1.0281978E-1,7.275488E-2,2.2014694E-2,-8.661048E-2,1E0,2.8E1,-1.4065854E-1,1E0,-9.82265E-2,4.1279476E-2,1.906751E-2,9.4139904E-2,-4.2623904E-2,-1.0568579E-2,4.814498E-2,-9.740881E-2,-2.9772395E-2,-6.396101E-2,7.4343192E-3,2.5469536E-2,-2.9343514E-2,2.1132493E-2,-4.515329E-2,-2.1822702E-2,6.421127E-2,-3.464198E-2,-9.7647555E-2,1.909838E-2,-5.5059034E-2],"split_indices":[13,15,26,5,29,0,26,6,35,26,17,35,31,9,17,28,17,0,1,26,21,31,0,31,0,32,21,18,33,17,17,0,0,21,0,0,0,0,32,17,0,28,0,0,0,0,0,0,0,0,0,0,0,0,0,0,0,0,0,0,0,0,0],"split_type":[0,0,0,0,0,0,0,0,0,0,0,0,0,0,0,0,0,0,0,0,0,0,0,0,0,0,0,0,0,0,0,0,0,0,0,0,0,0,0,0,0,0,0,0,0,0,0,0,0,0,0,0,0,0,0,0,0,0,0,0,0,0,0],"sum_hessian":[6.2377704E2,5.500229E2,7.375416E1,4.7273453E2,7.728834E1,7.165431E0,6.658872E1,4.109627E2,6.177184E1,5.17593E1,2.5529036E1,1.6959887E1,4.9628838E1,3.5258438E2,5.8378315E1,5.364546E1,8.126379E0,7.1176257E0,4.4641674E1,7.553634E0,1.79754E1,1.3560991E1,3.3988955E0,4.4699062E1,4.9297757E0,3.012948E2,5.12896E1,4.3460373E1,1.4917942E1,2.7936607E1,2.5708853E1,4.9792776E0,3.1471016E0,3.7963596E1,6.678077E0,4.2552032E0,3.2984304E0,3.7954466E0,1.4179955E1,1.0349942E1,3.2110493E0,3.8537422E1,6.161639E0,9.305557E1,2.0823921E2,8.587438E0,4.270216E1,3.742894E1,6.0314302E0,5.2101054E0,9.707837E0,2.2642447E1,5.294161E0,1.12078085E1,1.4501044E1,9.87662E0,2.8086977E1,9.477893E0,4.702062E0,5.4085946E0,4.9413476E0,1.4878547E1,2.3658876E1],"tree_param":{"num_deleted":"0","num_feature":"36","num_nodes":"63","size_leaf_vector":"1"}},{"base_weights":[-3.9006714E-3,4.9216725E-2,-3.9105242E-1,7.734818E-2,-5.696653E-1,-5.293571E-1,2.928997E-1,1.3302265E-1,-2.4475367E-1,-7.4679667E-1,-5.694404E-3,-6.938831E-1,-1.6044503E-1,-4.390017E-2,7.298302E-1,1.9528303E-1,-2.3497303E-1,-2.0368026E-1,-9.319638E-2,-8.988253E-3,-8.938651E-1,-4.8648894E-1,-9.1242987E-1,6.292953E-2,-4.953178E-1,1.2467762E-1,2.2598093E-2,2.551234E-1,-1.6792528E-1,-1.9646052E-2,-3.753027E-1,2.440085E-2,-2.4452975E-1,-1.2298483E-1,-5.934896E-1,-8.1977034E-1,-2.7158538E-1,-5.9511876E-1,-1.0292763E0,-8.1991136E-1,1.5192236E-2,1.9904139E-2,6.2509134E-2,-2.5787681E-2,2.2750204E-2,-2.0140398E-2,1.0262107E-1,-8.778512E-2,-2.6857426E-2,1.727862E-2,-2.7117211E-2,-9.3068324E-2,-2.0485725E-3,-1.7179616E-2,-1.1827967E-1,-6.784467E-2,7.353985E-3,-2.1043373E-2,-8.855223E-2,-1.1776852E-1,-5.437397E-2,-1.0197822E-1,-2.9108837E-2],"categories":[],"categories_nodes":[],"categories_segments":[],"categories_sizes":[],"default_left":[0,0,0,0,0,0,0,0,0,0,0,0,0,0,0,0,0,0,0,0,0,0,0,0,0,0,0,0,0,0,0,0,0,0,0,0,0,0,0,0,0,0,0,0,0,0,0,0,0,0,0,0,0,0,0,0,0,0,0,0,0,0,0],"id":6,"left_children":[1,3,5,7,9,11,13,15,17,19,-1,21,23,-1,25,27,29,31,-1,-1,33,35,37,-1,39,-1,-1,41,43,45,47,-1,49,-1,51,53,55,57,59,61,-1,-1,-1,-1,-1,-1,-1,-1,-1,-1,-1,-1,-1,-1,-1,-1,-1,-1,-1,-1,-1,-1,-1],"loss_changes":[1.2723341E1,9.517298E0,7.215907E0,9.381795E0,2.1169233E0,3.6788101E0,4.5413084E0,1.0245231E1,1.9888105E0,1.6190186E0,0E0,1.4998722E0,5.749165E0,0E0,1.9687996E0,8.33001E0,1.9528234E0,1.4150131E0,0E0,0E0,7.0926285E-1,1.5067716E0,1.1930275E-1,0E0,3.2754462E0,0E0,0E0,6.675997E0,1.9985011E0,5.2728705E0,1.8678455E0,0E0,8.0750513E-1,0E0,1.8090692E0,1.9069271E0,2.32122E0,6.7196465E-1,3.004074E-1,7.754245E-1,0E0,0E0,0E0,0E0,0E0,0E0,0E0,0E0,0E0,0E0,0E0,0E0,0E0,0E0,0E0,0E0,0E0,0E0,0E0,0E0,0E0,0E0,0E0],"parents":[2147483647,0,0,1,1,2,2,3,3,4,4,5,5,6,6,7,7,8,8,9,9,11,11,12,12,14,14,15,15,16,16,17,17,20,20,21,21,22,22,24,24,27,27,28,28,29,29,30,30,32,32,34,34,35,35,36,36,37,37,38,38,39,39],"right_children":[2,4,6,8,10,12,14,16,18,20,-1,22,24,-1,26,28,30,32,-1,-1,34,36,38,-1,40,-1,-1,42,44,46,48,-1,50,-1,52,54,56,58,60,62,-1,-1,-1,-1,-1,-1,-1,-1,-1,-1,-1,-1,-1,-1,-1,-1,-1,-1,-1,-1,-1,-1,-1],"split_conditions":[1E0,1E0,1E0,1E0,1E0,1E0,2.2E1,1E0,4.2E1,2.5E-1,-5.694404E-3,3.1E1,2.4E1,-4.390017E-2,1E0,1E0,6E-1,1.6666667E-1,-9.319638E-2,-8.988253E-3,7E-1,2.1E1,7E-1,6.292953E-2,1E0,1.2467762E-1,2.2598093E-2,1E0,4E0,3.2E1,2E-1,2.440085E-2,2.1E1,-1.2298483E-1,6E-1,1.6E1,7E-1,3.6E1,3.9E1,3.4E1,1.5192236E-2,1.9904139E-2,6.2509134E-2,-2.5787681E-2,2.2750204E-2,-2.0140398E-2,1.0262107E-1,-8.778512E-2,-2.6857426E-2,1.727862E-2,-2.7117211E-2,-9.3068324E-2,-2.0485725E-3,-1.7179616E-2,-1.1827967E-1,-6.784467E-2,7.353985E-3,-2.1043373E-2,-8.855223E-2,-1.1776852E-1,-5.437397E-2,-1.0197822E-1,-2.9108837E-2],"split_indices":[15,23,25,7,29,29,17,5,17,33,0,17,17,0,18,6,35,33,0,0,32,17,32,0,32,0,0,12,31,17,33,0,17,0,35,17,32,17,17,17,0,0,0,0,0,0,0,0,0,0,0,0,0,0,0,0,0,0,0,0,0,0,0],"split_type":[0,0,0,0,0,0,0,0,0,0,0,0,0,0,0,0,0,0,0,0,0,0,0,0,0,0,0,0,0,0,0,0,0,0,0,0,0,0,0,0,0,0,0,0,0,0,0,0,0,0,0,0,0,0,0,0,0,0,0,0,0,0,0],"sum_hessian":[6.1676843E2,5.431244E2,7.3644035E1,5.203469E2,2.2777494E1,6.144503E1,1.2199008E1,4.441617E2,7.618519E1,1.6589674E1,6.187821E0,4.1884598E1,1.9560434E1,4.558438E0,7.6405697E0,3.8029053E2,6.387117E1,7.311181E1,3.0733843E0,3.3293858E0,1.3260289E1,2.314588E1,1.8738716E1,5.562654E0,1.399778E1,3.043479E0,4.5970907E0,3.2675378E2,5.3536743E1,2.5651133E1,3.822004E1,5.6974473E0,6.741436E1,4.798541E0,8.461747E0,7.970422E0,1.5175458E1,6.6830945E0,1.2055622E1,9.14483E0,4.85295E0,2.850779E2,4.1675884E1,4.389858E1,9.6381645E0,2.2541164E1,3.1099694E0,5.4294553E0,3.279058E1,3.716415E0,6.3697945E1,4.934022E0,3.5277255E0,3.3909934E0,4.5794287E0,6.521543E0,8.653915E0,3.6167572E0,3.0663373E0,8.141546E0,3.9140754E0,5.9627748E0,3.1820545E0],"tree_param":{"num_deleted":"0","num_feature":"36","num_nodes":"63","size_leaf_vector":"1"}},{"base_weights":[1.1159859E-2,6.409849E-2,-3.0308497E-1,1.12997614E-1,-2.2078769E-1,-3.661454E-1,2.3005645E-1,7.093013E-2,4.4893587E-1,-1.495174E-1,-6.1900663E-1,-4.4535786E-1,2.0980777E-1,-8.629981E-3,7.073762E-2,3.2537885E-2,4.3171075E-1,-6.0750835E-2,6.739221E-1,-8.089613E-2,-6.909321E-2,-8.847312E-2,-8.729334E-3,9.901295E-2,-4.983318E-1,7.082231E-2,-3.135915E-2,2.4731661E-1,-5.6823116E-2,1.1509283E-1,1.3821277E-1,4.5688387E-2,-3.309652E-1,8.183792E-1,1.96663E-1,2.204014E-3,-4.717847E-1,3.7338164E-2,-1.9155016E-2,4.804662E-3,-5.348491E-1,9.2267984E-4,6.1702367E-2,-1.1143072E-2,3.3736203E-2,5.1859207E-2,-6.643704E-2,-7.238657E-3,-7.824532E-2,1.0125481E-1,6.3730404E-2,6.2829785E-2,-4.5533966E-2,2.057012E-2,-1.5070707E-2,-8.84499E-2,-1.9499823E-2,-6.6341035E-2,-2.9137773E-2],"categories":[],"categories_nodes":[],"categories_segments":[],"categories_sizes":[],"default_left":[0,0,0,0,0,0,0,0,0,0,0,0,0,0,0,0,0,0,0,0,0,0,0,0,0,0,0,0,0,0,0,0,0,0,0,0,0,0,0,0,0,0,0,0,0,0,0,0,0,0,0,0,0,0,0,0,0,0,0],"id":7,"left_children":[1,3,5,7,9,11,13,15,17,19,21,23,25,-1,-1,27,29,31,33,35,-1,-1,-1,37,39,-1,-1,41,43,-1,45,-1,47,49,51,53,55,-1,-1,-1,57,-1,-1,-1,-1,-1,-1,-1,-1,-1,-1,-1,-1,-1,-1,-1,-1,-1,-1],"loss_changes":[1.0368602E1,7.4533434E0,3.105566E0,6.4093075E0,2.1341636E0,3.7773485E0,1.5891008E0,5.612952E0,5.835969E0,2.4654956E0,1.5605483E0,2.1055946E0,2.9462242E0,0E0,0E0,7.081929E0,8.071518E0,2.4441795E0,2.261877E0,1.9943326E0,0E0,0E0,0E0,6.421459E-1,1.325531E0,0E0,0E0,9.534832E0,5.6529436E0,0E0,9.14516E0,0E0,1.2684968E0,2.9205894E-1,2.9544895E0,1.636676E0,1.0570345E0,0E0,0E0,0E0,1.7206974E0,0E0,0E0,0E0,0E0,0E0,0E0,0E0,0E0,0E0,0E0,0E0,0E0,0E0,0E0,0E0,0E0,0E0,0E0],"parents":[2147483647,0,0,1,1,2,2,3,3,4,4,5,5,6,6,7,7,8,8,9,9,10,10,11,11,12,12,15,15,16,16,17,17,18,18,19,19,23,23,24,24,27,27,28,28,30,30,32,32,33,33,34,34,35,35,36,36,40,40],"right_children":[2,4,6,8,10,12,14,16,18,20,22,24,26,-1,-1,28,30,32,34,36,-1,-1,-1,38,40,-1,-1,42,44,-1,46,-1,48,50,52,54,56,-1,-1,-1,58,-1,-1,-1,-1,-1,-1,-1,-1,-1,-1,-1,-1,-1,-1,-1,-1,-1,-1],"split_conditions":[1E0,1E0,1E0,1E0,1E0,1E0,1E0,4.3E1,1E0,1E0,5E0,1E0,3.1E1,-8.629981E-3,7.073762E-2,2.2E1,1E0,5E-1,3.9E1,1E0,-6.909321E-2,-8.847312E-2,-8.729334E-3,1E0,1.6666667E-1,7.082231E-2,-3.135915E-2,2.1E1,1E0,1.1509283E-1,1E0,4.5688387E-2,3.5E1,2.5E1,6E0,2.9E1,4E0,3.7338164E-2,-1.9155016E-2,4.804662E-3,1E0,9.2267984E-4,6.1702367E-2,-1.1143072E-2,3.3736203E-2,5.1859207E-2,-6.643704E-2,-7.238657E-3,-7.824532E-2,1.0125481E-1,6.3730404E-2,6.2829785E-2,-4.5533966E-2,2.057012E-2,-1.5070707E-2,-8.84499E-2,-1.9499823E-2,-6.6341035E-2,-2.9137773E-2],"split_indices":[7,6,12,12,13,16,32,17,21,11,26,21,17,0,0,17,21,33,17,15,0,0,0,30,33,0,0,17,16,0,30,0,17,17,26,17,26,0,0,0,32,0,0,0,0,0,0,0,0,0,0,0,0,0,0,0,0,0,0],"split_type":[0,0,0,0,0,0,0,0,0,0,0,0,0,0,0,0,0,0,0,0,0,0,0,0,0,0,0,0,0,0,0,0,0,0,0,0,0,0,0,0,0,0,0,0,0,0,0,0,0,0,0,0,0,0,0,0,0,0,0],"sum_hessian":[6.211066E2,5.3223987E2,8.886672E1,4.547824E2,7.745749E1,7.974736E1,9.119358E0,4.0524695E2,4.9535442E1,6.6865814E1,1.05916815E1,7.0304886E1,9.442478E0,5.9770865E0,3.142272E0,3.6725586E2,3.7991116E1,1.5393285E1,3.414216E1,6.036438E1,6.5014305E0,6.6196012E0,3.9720807E0,6.1577306E0,6.4147156E1,4.655798E0,4.78668E0,1.0738615E2,2.598697E2,1.01636505E1,2.7827467E1,5.042612E0,1.0350673E1,2.566048E1,8.481679E0,5.060127E1,9.763111E0,3.0205252E0,3.1372054E0,3.9989214E0,6.014823E1,6.594366E1,4.144249E1,2.2887965E2,3.099004E1,1.9119667E1,8.7078E0,7.319143E0,3.0315301E0,1.0166729E1,1.5493751E1,5.125129E0,3.3565495E0,2.1561523E1,2.9039747E1,3.0378273E0,6.7252836E0,3.8234375E1,2.1913857E1],"tree_param":{"num_deleted":"0","num_feature":"36","num_nodes":"59","size_leaf_vector":"1"}},{"base_weights":[1.0824633E-3,-4.7761794E-2,4.090354E-1,-6.774552E-2,5.8285284E-1,2.520334E-1,8.368541E-1,-2.3560744E-2,-3.3014625E-1,8.130437E-1,-3.0415257E-2,-3.9726648E-1,6.547442E-1,2.0128233E-2,1.02842726E-1,3.156527E-2,-3.3691671E-1,-3.8538036E-1,1.7893873E-1,3.1651642E-2,1.013194E0,1.8882686E-2,-6.460092E-2,8.293863E-1,3.0728438E-1,-9.528718E-3,3.0909836E-1,-2.5130597E-1,-6.8945503E-1,-4.393497E-1,2.1121262E-3,2.87406E-2,2.7545404E-3,1.2842989E-1,5.0255623E-2,-9.87289E-3,1.14620915E-2,5.4803103E-2,1.08566545E-1,-2.6863797E-2,7.067775E-2,-4.577068E-3,1.9890832E-2,1.0648139E-1,1.8706417E-2,-1.0297407E-2,-5.2406657E-2,-9.6754305E-2,-1.9577155E-2,9.685627E-3,-4.757264E-2,1.6868874E-2,-1.9771552E-2],"categories":[],"categories_nodes":[],"categories_segments":[],"categories_sizes":[],"default_left":[0,0,0,0,0,0,0,0,0,0,0,0,0,0,0,0,0,0,0,0,0,0,0,0,0,0,0,0,0,0,0,0,0,0,0,0,0,0,0,0,0,0,0,0,0,0,0,0,0,0,0,0,0],"id":8,"left_children":[1,3,5,7,9,11,13,15,17,19,-1,21,23,-1,-1,25,27,29,31,-1,33,35,-1,37,39,41,43,45,47,49,-1,-1,-1,-1,-1,-1,-1,-1,-1,51,-1,-1,-1,-1,-1,-1,-1,-1,-1,-1,-1,-1,-1],"loss_changes":[1.2293677E1,6.983348E0,4.2201834E0,6.1948705E0,3.7242708E0,1.3253193E1,1.8969164E0,7.938707E0,2.2347918E0,1.0500059E0,0E0,2.0456247E0,1.6290827E0,0E0,0E0,4.4646826E0,1.9016004E0,1.5406475E0,1.27096E-1,0E0,6.525049E-1,1.0500574E-1,0E0,8.5239506E-1,1.617337E0,2.5905576E0,4.4567122E0,2.2476754E0,1.5759726E0,1.2489176E0,0E0,0E0,0E0,0E0,0E0,0E0,0E0,0E0,0E0,2.833766E-1,0E0,0E0,0E0,0E0,0E0,0E0,0E0,0E0,0E0,0E0,0E0,0E0,0E0],"parents":[2147483647,0,0,1,1,2,2,3,3,4,4,5,5,6,6,7,7,8,8,9,9,11,11,12,12,15,15,16,16,17,17,18,18,20,20,21,21,23,23,24,24,25,25,26,26,27,27,28,28,29,29,39,39],"right_children":[2,4,6,8,10,12,14,16,18,20,-1,22,24,-1,-1,26,28,30,32,-1,34,36,-1,38,40,42,44,46,48,50,-1,-1,-1,-1,-1,-1,-1,-1,-1,52,-1,-1,-1,-1,-1,-1,-1,-1,-1,-1,-1,-1,-1],"split_conditions":[1E0,3E0,1E0,1E0,1E0,1E0,4E-1,1E0,1E0,7E-1,-3.0415257E-2,7.1428573E-1,1E0,2.0128233E-2,1.02842726E-1,1E0,1E0,1E0,1E0,3.1651642E-2,1E0,2E-1,-6.460092E-2,1E0,6E-1,1E0,2E-1,6E0,5E0,5E0,2.1121262E-3,2.87406E-2,2.7545404E-3,1.2842989E-1,5.0255623E-2,-9.87289E-3,1.14620915E-2,5.4803103E-2,1.08566545E-1,1E0,7.067775E-2,-4.577068E-3,1.9890832E-2,1.0648139E-1,1.8706417E-2,-1.0297407E-2,-5.2406657E-2,-9.6754305E-2,-1.9577155E-2,9.685627E-3,-4.757264E-2,1.6868874E-2,-1.9771552E-2],"split_indices":[12,27,24,7,2,19,33,6,16,32,0,33,29,0,0,14,13,10,28,0,20,33,0,18,35,10,33,26,26,26,0,0,0,0,0,0,0,0,0,18,0,0,0,0,0,0,0,0,0,0,0,0,0],"split_type":[0,0,0,0,0,0,0,0,0,0,0,0,0,0,0,0,0,0,0,0,0,0,0,0,0,0,0,0,0,0,0,0,0,0,0,0,0,0,0,0,0,0,0,0,0,0,0,0,0,0,0,0,0],"sum_hessian":[6.1498126E2,5.500113E2,6.496999E1,5.339823E2,1.602895E1,4.869053E1,1.6279465E1,4.579581E2,7.602423E1,1.2792493E1,3.2364562E0,1.864396E1,3.0046568E1,4.2454033E0,1.2034061E1,3.902109E2,6.774718E1,6.880239E1,7.221846E0,4.416802E0,8.37569E0,7.320603E0,1.1323359E1,1.9072998E1,1.0973569E1,3.4072574E2,4.9485184E1,5.58881E1,1.18590765E1,6.066709E1,8.135296E0,3.684001E0,3.5378451E0,4.4813757E0,3.894315E0,3.271017E0,4.0495863E0,1.058772E1,8.485279E0,6.483406E0,4.490163E0,2.909221E2,4.980363E1,5.805875E0,4.367931E1,3.709353E1,1.879457E1,6.9719744E0,4.887102E0,3.7486053E0,5.6918488E1,3.02907E0,3.4543364E0],"tree_param":{"num_deleted":"0","num_feature":"36","num_nodes":"53","size_leaf_vector":"1"}},{"base_weights":[-3.8725366E-3,4.346999E-2,-2.9561698E-1,8.962875E-2,-2.812317E-1,-2.3698829E-1,-6.4465755E-1,1.3699646E-1,-1.7865153E-1,-4.2343962E-1,6.435262E-2,-1.8262959E-1,-9.023284E-2,-8.557945E-2,-3.080808E-2,1.1669009E-1,6.9222885E-1,-1.1205531E-1,-6.527798E-2,-2.4643853E-1,-7.912728E-1,5.02624E-2,-1.21602155E-1,3.7648983E-2,-2.1904586E-1,7.9283565E-2,3.728781E-1,-1.0692782E-2,9.341602E-1,-1.6442226E-2,-3.5565937E-1,-1.113192E-1,-7.686407E-2,-4.9432772E-1,-1.334396E-1,-3.7178898E-1,6.037165E-2,-2.6127607E-1,4.791013E-2,2.6462257E-2,9.5462886E-4,-2.0009125E-2,6.0840506E-2,5.219183E-2,1.0901101E-1,-1.3452497E-2,1.0312394E-1,-5.8554392E-2,-1.6558101E-2,-7.512763E-2,1.2244696E-2,-9.0645395E-2,1.0182041E-2,-4.878646E-2,-1.5061754E-2,-3.1916555E-2,1.0445596E-3,3.2981243E-2,-4.1428965E-2],"categories":[],"categories_nodes":[],"categories_segments":[],"categories_sizes":[],"default_left":[0,0,0,0,0,0,0,0,0,0,0,0,0,0,0,0,0,0,0,0,0,0,0,0,0,0,0,0,0,0,0,0,0,0,0,0,0,0,0,0,0,0,0,0,0,0,0,0,0,0,0,0,0,0,0,0,0,0,0],"id":9,"left_children":[1,3,5,7,9,11,13,15,17,19,21,23,-1,-1,-1,25,27,29,-1,31,33,-1,35,-1,37,39,41,-1,43,45,47,49,-1,51,-1,53,-1,55,57,-1,-1,-1,-1,-1,-1,-1,-1,-1,-1,-1,-1,-1,-1,-1,-1,-1,-1,-1,-1],"loss_changes":[8.422866E0,7.89014E0,1.5895262E0,5.872617E0,3.2489262E0,2.528842E0,5.651736E-1,4.335614E0,2.1211338E0,2.837368E0,1.6894221E0,1.5099025E0,0E0,0E0,0E0,3.6032815E0,2.7327228E0,1.4415524E0,0E0,2.2356064E0,1.7077103E0,0E0,2.9161046E0,0E0,7.616646E-1,4.2893543E0,6.6032605E0,0E0,1.0967255E-1,5.7893286E0,6.6629195E-1,4.176635E0,0E0,2.8141572E0,0E0,2.2554278E-1,0E0,9.0827227E-1,1.4293367E0,0E0,0E0,0E0,0E0,0E0,0E0,0E0,0E0,0E0,0E0,0E0,0E0,0E0,0E0,0E0,0E0,0E0,0E0,0E0,0E0],"parents":[2147483647,0,0,1,1,2,2,3,3,4,4,5,5,6,6,7,7,8,8,9,9,10,10,11,11,15,15,16,16,17,17,19,19,20,20,22,22,24,24,25,25,26,26,28,28,29,29,30,30,31,31,33,33,35,35,37,37,38,38],"right_children":[2,4,6,8,10,12,14,16,18,20,22,24,-1,-1,-1,26,28,30,-1,32,34,-1,36,-1,38,40,42,-1,44,46,48,50,-1,52,-1,54,-1,56,58,-1,-1,-1,-1,-1,-1,-1,-1,-1,-1,-1,-1,-1,-1,-1,-1,-1,-1,-1,-1],"split_conditions":[1E0,1E0,1E0,1E0,1E0,4.2E1,1E0,3E0,1E0,6E0,2.4E1,2.1E1,-9.023284E-2,-8.557945E-2,-3.080808E-2,1E0,3.9E1,4.6E1,-6.527798E-2,1E0,3.8E1,5.02624E-2,1E0,3.7648983E-2,1E0,2.2E1,1E0,-1.0692782E-2,5E0,3.5E1,4.9E1,4E0,-7.686407E-2,6E-1,-1.334396E-1,6E0,6.037165E-2,7E0,1E0,2.6462257E-2,9.5462886E-4,-2.0009125E-2,6.0840506E-2,5.219183E-2,1.0901101E-1,-1.3452497E-2,1.0312394E-1,-5.8554392E-2,-1.6558101E-2,-7.512763E-2,1.2244696E-2,-9.0645395E-2,1.0182041E-2,-4.878646E-2,-1.5061754E-2,-3.1916555E-2,1.0445596E-3,3.2981243E-2,-4.1428965E-2],"split_indices":[7,15,9,6,29,17,30,27,11,26,17,17,0,0,0,12,17,17,0,1,17,0,24,0,12,17,21,0,26,17,17,26,0,35,0,26,0,26,29,0,0,0,0,0,0,0,0,0,0,0,0,0,0,0,0,0,0,0,0],"split_type":[0,0,0,0,0,0,0,0,0,0,0,0,0,0,0,0,0,0,0,0,0,0,0,0,0,0,0,0,0,0,0,0,0,0,0,0,0,0,0,0,0,0,0,0,0,0,0,0,0,0,0,0,0,0,0,0,0,0,0],"sum_hessian":[6.0789557E2,5.237548E2,8.414077E1,4.5920007E2,6.455474E1,7.347763E1,1.0663138E1,3.9070612E2,6.8493935E1,4.557524E1,1.8979496E1,6.910611E1,4.371523E0,5.6046553E0,5.0584826E0,3.7808856E2,1.2617571E1,6.114222E1,7.351719E0,3.1896595E1,1.3678647E1,5.1466265E0,1.38328705E1,3.6547155E0,6.545139E1,3.310594E2,4.7029175E1,3.0617867E0,9.555784E0,4.4675037E1,1.6467178E1,2.6303707E1,5.5928874E0,1.0078516E1,3.6001308E0,1.0647575E1,3.1852942E0,5.6530083E1,8.921309E0,8.974686E1,2.4131252E2,1.3744125E1,3.328505E1,3.8157747E0,5.7400103E0,4.093312E1,3.7419178E0,6.511501E0,9.955679E0,6.4452977E0,1.985841E1,5.6512227E0,4.427294E0,6.192037E0,4.4555387E0,4.6457783E1,1.0072299E1,5.719396E0,3.2019136E0],"tree_param":{"num_deleted":"0","num_feature":"36","num_nodes":"59","size_leaf_vector":"1"}},{"base_weights":[-2.1914264E-2,3.6517788E-2,-3.7519377E-1,1.3965488E-2,7.509496E-1,4.5813356E-2,-4.4209895E-1,-1.9344898E-2,2.9373056E-1,9.965424E-1,-9.098429E-3,4.660238E-2,-1.4637427E-1,2.3516102E-2,-4.9198073E-1,-5.7316713E-2,2.4020617E-1,-5.679453E-2,4.1272292E-1,3.230958E-2,1.2929884E-1,-3.8907155E-2,1.33956E-2,-4.183094E-1,-9.9055E-2,-9.946783E-2,2.2351792E-1,6.171517E-1,7.595975E-2,5.872836E-1,5.4048845E-3,-4.6673894E-1,-7.156254E-2,-1.7243674E-2,6.706465E-3,1.1304942E-2,7.330396E-2,-4.23835E-3,1.2154392E-1,-2.4547806E-2,3.939071E-2,2.619264E-2,9.355592E-2,3.5520345E-2,-4.717609E-2,-5.2739955E-2,-7.6204375E-3,3.747588E-2,-4.2897075E-2],"categories":[],"categories_nodes":[],"categories_segments":[],"categories_sizes":[],"default_left":[0,0,0,0,0,0,0,0,0,0,0,0,0,0,0,0,0,0,0,0,0,0,0,0,0,0,0,0,0,0,0,0,0,0,0,0,0,0,0,0,0,0,0,0,0,0,0,0,0],"id":10,"left_children":[1,3,5,7,9,11,13,15,17,19,-1,-1,21,-1,23,25,27,-1,29,-1,-1,-1,-1,31,-1,33,35,37,39,41,43,45,47,-1,-1,-1,-1,-1,-1,-1,-1,-1,-1,-1,-1,-1,-1,-1,-1],"loss_changes":[1.2499186E1,8.366247E0,2.4406796E0,4.711944E0,3.376398E0,1.092986E0,2.6237478E0,4.4706736E0,5.7500396E0,2.054925E0,0E0,0E0,6.962757E-1,0E0,2.1373272E0,4.7017326E0,3.5383096E0,0E0,3.3987427E0,0E0,0E0,0E0,0E0,1.012085E0,0E0,4.1967745E0,2.838263E0,6.9308686E0,4.3353243E0,3.5490408E0,2.7318017E0,1.2496653E0,1.5662688E0,0E0,0E0,0E0,0E0,0E0,0E0,0E0,0E0,0E0,0E0,0E0,0E0,0E0,0E0,0E0,0E0],"parents":[2147483647,0,0,1,1,2,2,3,3,4,4,5,5,6,6,7,7,8,8,9,9,12,12,14,14,15,15,16,16,18,18,23,23,25,25,26,26,27,27,28,28,29,29,30,30,31,31,32,32],"right_children":[2,4,6,8,10,12,14,16,18,20,-1,-1,22,-1,24,26,28,-1,30,-1,-1,-1,-1,32,-1,34,36,38,40,42,44,46,48,-1,-1,-1,-1,-1,-1,-1,-1,-1,-1,-1,-1,-1,-1,-1,-1],"split_conditions":[1E0,3E0,2E-1,1E0,4E0,7E-1,5E0,1E0,1.7E1,7E-1,-9.098429E-3,4.660238E-2,1.6666667E-1,2.3516102E-2,1E0,1E0,2.2E1,-5.679453E-2,3.5E1,3.230958E-2,1.2929884E-1,-3.8907155E-2,1.33956E-2,1E0,-9.9055E-2,1E0,1E0,1.7E1,3.3E1,2.8E1,6E0,1E0,3.2E1,-1.7243674E-2,6.706465E-3,1.1304942E-2,7.330396E-2,-4.23835E-3,1.2154392E-1,-2.4547806E-2,3.939071E-2,2.619264E-2,9.355592E-2,3.5520345E-2,-4.717609E-2,-5.2739955E-2,-7.6204375E-3,3.747588E-2,-4.2897075E-2],"split_indices":[7,27,33,12,31,32,26,14,17,32,0,0,33,0,8,0,17,0,17,0,0,0,0,16,0,29,8,17,17,17,26,10,17,0,0,0,0,0,0,0,0,0,0,0,0,0,0,0,0],"split_type":[0,0,0,0,0,0,0,0,0,0,0,0,0,0,0,0,0,0,0,0,0,0,0,0,0,0,0,0,0,0,0,0,0,0,0,0,0,0,0,0,0,0,0,0,0,0,0,0,0],"sum_hessian":[6.0383344E2,5.1890393E2,8.492952E1,5.0401337E2,1.4890523E1,1.1689224E1,7.3240295E1,4.512195E2,5.2793854E1,1.1385678E1,3.5048451E0,3.2212515E0,8.467973E0,4.769465E0,6.847083E1,3.9431168E2,5.6907856E1,5.948098E0,4.6845757E1,4.1187863E0,7.266892E0,4.330724E0,4.137249E0,6.125803E1,7.212802E0,3.4341373E2,5.0897945E1,1.6434107E1,4.0473747E1,3.248298E1,1.4362778E1,5.344711E1,7.810919E0,2.3876118E2,1.0465254E2,4.283322E1,8.064723E0,8.258895E0,8.175212E0,2.023974E1,2.0234009E1,1.7699894E1,1.4783084E1,8.434932E0,5.9278455E0,4.5958115E1,7.4889956E0,3.4518275E0,4.359091E0],"tree_param":{"num_deleted":"0","num_feature":"36","num_nodes":"49","size_leaf_vector":"1"}},{"base_weights":[-1.52154835E-2,2.2284683E-2,-2.8189832E-1,4.7375116E-2,-5.0678486E-1,-3.5158125E-1,2.1693732E-1,8.8586785E-2,-2.4386247E-1,-5.90554E-1,2.2288037E-3,-4.4522607E-1,8.3948165E-2,6.193036E-2,-3.6021378E-2,1.3085689E-1,-1.8933332E-1,-3.3266482E-1,4.6483636E-2,-2.7706021E-2,-7.284592E-1,-5.3063935E-1,1.8150238E-2,4.501715E-2,-9.060711E-2,1.7841604E-1,-1.3335225E-1,-2.749665E-1,3.4773186E-2,-4.2997843E-1,3.0600032E-2,-4.6248907E-1,-1.08074404E-1,-9.5608786E-2,-6.22249E-1,3.613581E-2,-2.0086255E-2,-3.8058735E-2,1.5833573E-2,8.412183E-3,3.4687307E-2,-3.8091946E-2,1.0724886E-2,9.527377E-3,-4.1115414E-2,-2.412973E-2,-8.2067125E-2,-8.046366E-2,2.7656094E-3,-5.3890325E-2,5.66145E-2,-4.422848E-2,-9.8249376E-2],"categories":[],"categories_nodes":[],"categories_segments":[],"categories_sizes":[],"default_left":[0,0,0,0,0,0,0,0,0,0,0,0,0,0,0,0,0,0,0,0,0,0,0,0,0,0,0,0,0,0,0,0,0,0,0,0,0,0,0,0,0,0,0,0,0,0,0,0,0,0,0,0,0],"id":11,"left_children":[1,3,5,7,9,11,13,15,17,19,-1,21,23,-1,-1,25,27,29,-1,-1,31,33,35,-1,37,39,41,43,-1,45,-1,47,-1,49,51,-1,-1,-1,-1,-1,-1,-1,-1,-1,-1,-1,-1,-1,-1,-1,-1,-1,-1],"loss_changes":[6.0547013E0,7.075047E0,2.6705828E0,6.119215E0,1.0828223E0,2.7238073E0,2.4910686E0,5.261778E0,4.1348534E0,7.005334E-1,0E0,2.1615286E0,8.3971477E-1,0E0,0E0,4.8933163E0,2.8210087E0,3.6607938E0,0E0,0E0,8.0086374E-1,1.7714043E0,7.813395E-1,0E0,7.313271E-1,5.1942997E0,3.5961952E0,2.644428E0,0E0,3.465107E0,0E0,1.6419251E0,0E0,2.9960358E0,2.0140152E0,0E0,0E0,0E0,0E0,0E0,0E0,0E0,0E0,0E0,0E0,0E0,0E0,0E0,0E0,0E0,0E0,0E0,0E0],"parents":[2147483647,0,0,1,1,2,2,3,3,4,4,5,5,6,6,7,7,8,8,9,9,11,11,12,12,15,15,16,16,17,17,20,20,21,21,22,22,24,24,25,25,26,26,27,27,29,29,31,31,33,33,34,34],"right_children":[2,4,6,8,10,12,14,16,18,20,-1,22,24,-1,-1,26,28,30,-1,-1,32,34,36,-1,38,40,42,44,-1,46,-1,48,-1,50,52,-1,-1,-1,-1,-1,-1,-1,-1,-1,-1,-1,-1,-1,-1,-1,-1,-1,-1],"split_conditions":[1E0,1E0,1E0,1E0,1E0,1E0,1E0,1E0,1E0,1E0,2.2288037E-3,1E0,6.25E-1,6.193036E-2,-3.6021378E-2,1E0,7E0,1E0,4.6483636E-2,-2.7706021E-2,4E0,2.857143E-1,7E-1,4.501715E-2,7E-1,2E0,1E0,4.2857143E-1,3.4773186E-2,1E0,3.0600032E-2,1E0,-1.08074404E-1,2E0,1E0,3.613581E-2,-2.0086255E-2,-3.8058735E-2,1.5833573E-2,8.412183E-3,3.4687307E-2,-3.8091946E-2,1.0724886E-2,9.527377E-3,-4.1115414E-2,-2.412973E-2,-8.2067125E-2,-8.046366E-2,2.7656094E-3,-5.3890325E-2,5.66145E-2,-4.422848E-2,-9.8249376E-2],"split_indices":[15,23,4,11,9,25,30,5,3,34,0,5,33,0,0,13,31,0,0,0,31,33,32,0,32,20,31,33,0,18,0,31,0,20,24,0,0,0,0,0,0,0,0,0,0,0,0,0,0,0,0,0,0],"split_type":[0,0,0,0,0,0,0,0,0,0,0,0,0,0,0,0,0,0,0,0,0,0,0,0,0,0,0,0,0,0,0,0,0,0,0,0,0,0,0,0,0,0,0,0,0,0,0,0,0,0,0,0,0],"sum_hessian":[6.0380255E2,5.301683E2,7.3634285E1,5.0703333E2,2.3134937E1,6.4868E1,8.766287E0,4.4478912E2,6.22442E1,1.987231E1,3.262625E0,5.337037E1,1.1497629E1,5.1222363E0,3.6440504E0,3.8652933E2,5.825981E1,5.578478E1,6.459424E0,6.990403E0,1.2881908E1,4.494127E1,8.429099E0,3.201598E0,8.296031E0,3.2784082E2,5.8688496E1,5.0668858E1,7.5909524E0,4.8692276E1,7.092502E0,8.658038E0,4.2238708E0,8.173079E0,3.6768192E1,3.0303674E0,5.3987317E0,3.5878832E0,4.708148E0,2.1114903E2,1.1669179E2,2.863807E1,3.0050425E1,1.3706566E1,3.696229E1,3.3925777E1,1.4766499E1,4.72094E0,3.9370978E0,5.005588E0,3.1674905E0,2.6004896E1,1.0763294E1],"tree_param":{"num_deleted":"0","num_feature":"36","num_nodes":"53","size_leaf_vector":"1"}},{"base_weights":[1.6038233E-2,-4.1469904E-3,6.572379E-1,-4.41815E-2,3.636546E-1,9.101089E-1,-1.3146493E-2,-8.203316E-2,2.6894817E-1,4.6469986E-1,-2.1592212E-1,1.1578951E0,-8.8910357E-4,2.9950034E-2,-1.860077E-1,-1.8923955E-1,5.055664E-1,7.836994E-1,2.5118098E-1,-5.424255E-2,2.132796E-2,1.4067522E-1,6.463737E-2,-2.4020024E-2,4.3414038E-1,-1.404446E-1,-4.5850632E-1,2.292792E-2,-1.0386672E-1,6.833856E-1,-2.5271667E-2,-5.4671937E-3,9.527951E-1,-6.365287E-2,6.242456E-1,1.2510767E-3,-5.3892236E-2,-7.046558E-4,9.503364E-2,-1.8442322E-2,1.29917655E-2,-8.007145E-3,-8.1319414E-2,-4.545846E-2,3.7668433E-2,8.134313E-2,-5.8655394E-3,2.867048E-2,-4.5689505E-2,6.718296E-2,1.2925355E-1,3.2991126E-2,-6.479929E-2,1.8322943E-3,8.789319E-2],"categories":[],"categories_nodes":[],"categories_segments":[],"categories_sizes":[],"default_left":[0,0,0,0,0,0,0,0,0,0,0,0,0,0,0,0,0,0,0,0,0,0,0,0,0,0,0,0,0,0,0,0,0,0,0,0,0,0,0,0,0,0,0,0,0,0,0,0,0,0,0,0,0,0,0],"id":12,"left_children":[1,3,5,7,9,11,-1,13,15,17,19,21,-1,23,25,27,29,31,33,-1,-1,-1,-1,35,37,39,41,43,-1,45,47,-1,49,51,53,-1,-1,-1,-1,-1,-1,-1,-1,-1,-1,-1,-1,-1,-1,-1,-1,-1,-1,-1,-1],"loss_changes":[7.875075E0,8.713596E0,3.8231783E0,6.3463445E0,3.5023375E0,3.241022E0,0E0,5.5572014E0,6.3597207E0,3.194048E0,1.4199218E0,5.1416016E-1,0E0,5.036912E0,3.0070734E0,3.7010684E0,3.639511E0,2.8150454E0,3.7153423E0,0E0,0E0,0E0,0E0,3.848213E0,6.200195E0,2.5611482E0,4.632337E0,3.094387E0,0E0,2.8250237E0,1.557448E0,0E0,6.849575E-1,4.3255277E0,2.208435E0,0E0,0E0,0E0,0E0,0E0,0E0,0E0,0E0,0E0,0E0,0E0,0E0,0E0,0E0,0E0,0E0,0E0,0E0,0E0,0E0],"parents":[2147483647,0,0,1,1,2,2,3,3,4,4,5,5,7,7,8,8,9,9,10,10,11,11,13,13,14,14,15,15,16,16,17,17,18,18,23,23,24,24,25,25,26,26,27,27,29,29,30,30,32,32,33,33,34,34],"right_children":[2,4,6,8,10,12,-1,14,16,18,20,22,-1,24,26,28,30,32,34,-1,-1,-1,-1,36,38,40,42,44,-1,46,48,-1,50,52,54,-1,-1,-1,-1,-1,-1,-1,-1,-1,-1,-1,-1,-1,-1,-1,-1,-1,-1,-1,-1],"split_conditions":[3E0,1E0,4E0,8E0,1E0,1E0,-1.3146493E-2,1E0,2.5E1,2.7E1,1E0,2E0,-8.8910357E-4,1E0,4E0,1E0,3.8E1,2E1,2E0,-5.424255E-2,2.132796E-2,1.4067522E-1,6.463737E-2,4E1,1E0,5.2E1,3.1E1,2.1E1,-1.0386672E-1,1E0,1E1,-5.4671937E-3,1E0,1E0,5.714286E-1,1.2510767E-3,-5.3892236E-2,-7.046558E-4,9.503364E-2,-1.8442322E-2,1.29917655E-2,-8.007145E-3,-8.1319414E-2,-4.545846E-2,3.7668433E-2,8.134313E-2,-5.8655394E-3,2.867048E-2,-4.5689505E-2,6.718296E-2,1.2925355E-1,3.2991126E-2,-6.479929E-2,1.8322943E-3,8.789319E-2],"split_indices":[27,16,31,31,5,2,0,20,17,17,28,20,0,12,31,11,17,17,20,0,0,0,0,17,19,17,17,17,0,9,31,0,28,32,33,0,0,0,0,0,0,0,0,0,0,0,0,0,0,0,0,0,0,0,0],"split_type":[0,0,0,0,0,0,0,0,0,0,0,0,0,0,0,0,0,0,0,0,0,0,0,0,0,0,0,0,0,0,0,0,0,0,0,0,0,0,0,0,0,0,0,0,0,0,0,0,0,0,0,0,0,0,0],"sum_hessian":[6.072435E2,5.896739E2,1.756964E1,5.3258307E2,5.7090786E1,1.318756E1,4.382079E0,4.7580496E2,5.677811E1,4.878386E1,8.306925E0,1.01822195E1,3.005341E0,2.294228E2,2.4638217E2,1.9404144E1,3.7373966E1,1.8489681E1,3.029418E1,4.5680814E0,3.7388432E0,5.6724286E0,4.5097904E0,2.0322719E2,2.619561E1,2.1238565E2,3.3996517E1,1.6304632E1,3.0995135E0,2.7780674E1,9.593293E0,3.2169285E0,1.5272753E1,1.6879087E1,1.34150915E1,1.9067506E2,1.2552125E1,1.4655807E1,1.1539804E1,1.8294473E2,2.9440926E1,1.704068E1,1.6955837E1,6.8173366E0,9.487295E0,2.3556156E1,4.2245173E0,5.7633257E0,3.8299677E0,9.989176E0,5.283577E0,1.0346162E1,6.5329256E0,4.287254E0,9.127837E0],"tree_param":{"num_deleted":"0","num_feature":"36","num_nodes":"55","size_leaf_vector":"1"}},{"base_weights":[-2.5033168E-2,-6.3652866E-2,2.765004E-1,-9.6004315E-2,2.022157E-1,1.4243326E-1,6.2799484E-1,6.58612E-2,-1.6627812E-1,-2.9604787E-1,4.3744606E-1,1.890018E-2,7.83604E-1,3.668314E-2,8.355928E-2,1.2870912E-1,-3.414193E-1,-2.5041473E-1,4.038469E-2,-5.4956377E-1,3.47828E-2,2.2122608E-1,7.53797E-1,9.650551E-2,-6.4898394E-2,3.879097E-2,9.481072E-2,1.9340076E-1,-2.2952127E-1,2.4293361E-2,-4.9041072E-1,-3.0693403E-1,1.8148622E-1,1.19864106E-1,-4.7772488E-1,7.970022E-3,-8.338123E-2,-4.0940836E-2,7.578997E-2,2.0307183E-2,9.094919E-1,3.094497E-1,-3.010224E-1,1.2663099E-2,5.804522E-2,3.2548834E-2,-7.355871E-2,7.1039693E-3,-1.0449212E-1,-3.516269E-2,-2.295955E-3,-1.7894031E-3,3.3606436E-2,-3.8625826E-3,5.2713007E-2,-8.9591265E-2,-1.2648729E-2,-3.2420095E-2,1.0586383E-2,6.049924E-2,1.1505548E-1,1.6468635E-2,1.0274152E-1,-7.2889306E-2,4.4267726E-4],"categories":[],"categories_nodes":[],"categories_segments":[],"categories_sizes":[],"default_left":[0,0,0,0,0,0,0,0,0,0,0,0,0,0,0,0,0,0,0,0,0,0,0,0,0,0,0,0,0,0,0,0,0,0,0,0,0,0,0,0,0,0,0,0,0,0,0,0,0,0,0,0,0,0,0,0,0,0,0,0,0,0,0,0,0],"id":13,"left_children":[1,3,5,7,9,11,13,15,17,19,21,23,25,-1,-1,27,29,31,33,35,-1,37,39,41,-1,-1,-1,43,45,-1,47,49,51,53,55,-1,-1,57,-1,-1,59,61,63,-1,-1,-1,-1,-1,-1,-1,-1,-1,-1,-1,-1,-1,-1,-1,-1,-1,-1,-1,-1,-1,-1],"loss_changes":[7.0703406E0,4.6442056E0,3.1596947E0,5.471338E0,7.00385E0,4.0409226E0,7.097211E-1,3.7819517E0,5.83512E0,3.3588183E0,2.5860982E0,2.3410273E0,1.6905022E-1,0E0,0E0,2.9930806E0,1.8426504E0,5.870737E0,4.0840464E0,2.626264E0,0E0,3.5937278E0,1.1807165E0,3.5005682E0,0E0,0E0,0E0,2.7258048E0,5.834426E0,0E0,5.088327E0,2.6701374E0,8.7496203E-1,5.5443997E0,1.8264613E0,0E0,0E0,7.811761E-1,0E0,0E0,1.940813E-1,2.6063557E0,1.9045058E0,0E0,0E0,0E0,0E0,0E0,0E0,0E0,0E0,0E0,0E0,0E0,0E0,0E0,0E0,0E0,0E0,0E0,0E0,0E0,0E0,0E0,0E0],"parents":[2147483647,0,0,1,1,2,2,3,3,4,4,5,5,6,6,7,7,8,8,9,9,10,10,11,11,12,12,15,15,16,16,17,17,18,18,19,19,21,21,22,22,23,23,27,27,28,28,30,30,31,31,32,32,33,33,34,34,37,37,40,40,41,41,42,42],"right_children":[2,4,6,8,10,12,14,16,18,20,22,24,26,-1,-1,28,30,32,34,36,-1,38,40,42,-1,-1,-1,44,46,-1,48,50,52,54,56,-1,-1,58,-1,-1,60,62,64,-1,-1,-1,-1,-1,-1,-1,-1,-1,-1,-1,-1,-1,-1,-1,-1,-1,-1,-1,-1,-1,-1],"split_conditions":[1E0,1E0,1E0,1E0,1E0,1E0,1E0,1E0,1E0,1E0,6E-1,1E0,1E0,3.668314E-2,8.355928E-2,1E0,4E-1,1E0,1E0,7.1428573E-1,3.47828E-2,1E0,4E-1,1E0,-6.4898394E-2,3.879097E-2,9.481072E-2,1E0,1E0,2.4293361E-2,1E0,1E0,1E0,2E0,5.714286E-1,7.970022E-3,-8.338123E-2,7.1428573E-1,7.578997E-2,2.0307183E-2,2E0,1E0,1E0,1.2663099E-2,5.804522E-2,3.2548834E-2,-7.355871E-2,7.1039693E-3,-1.0449212E-1,-3.516269E-2,-2.295955E-3,-1.7894031E-3,3.3606436E-2,-3.8625826E-3,5.2713007E-2,-8.9591265E-2,-1.2648729E-2,-3.2420095E-2,1.0586383E-2,6.049924E-2,1.1505548E-1,1.6468635E-2,1.0274152E-1,-7.2889306E-2,4.4267726E-4],"split_indices":[0,12,30,21,21,19,18,15,29,19,35,15,28,0,0,13,33,16,6,33,0,32,33,32,0,0,0,4,20,0,20,10,20,20,33,0,0,33,0,0,20,16,28,0,0,0,0,0,0,0,0,0,0,0,0,0,0,0,0,0,0,0,0,0,0],"split_type":[0,0,0,0,0,0,0,0,0,0,0,0,0,0,0,0,0,0,0,0,0,0,0,0,0,0,0,0,0,0,0,0,0,0,0,0,0,0,0,0,0,0,0,0,0,0,0,0,0,0,0,0,0,0,0,0,0,0,0,0,0,0,0,0,0],"sum_hessian":[6.0463837E2,5.366894E2,6.794899E1,4.7903793E2,5.7651455E1,5.0205E1,1.7743988E1,1.4503458E2,3.3400336E2,1.8405817E1,3.9245636E1,4.2957874E1,7.2471285E0,9.083608E0,8.66038E0,1.2623855E2,1.8796034E1,2.3721616E2,9.678721E1,1.3311214E1,5.0946026E0,2.4321589E1,1.4924047E1,3.925241E1,3.7054603E0,3.1142375E0,4.132891E0,1.073184E2,1.892015E1,3.690634E0,1.5105399E1,2.100217E2,2.719446E1,8.458092E1,1.2206292E1,4.3658314E0,8.945383E0,1.6960192E1,7.3613977E0,3.797124E0,1.1126924E1,2.570471E1,1.3547703E1,9.2660774E1,1.4657626E1,9.193897E0,9.726253E0,7.9389634E0,7.1664357E0,1.8125667E2,2.876502E1,1.2262326E1,1.4932134E1,6.1538143E1,2.3042772E1,4.8641934E0,7.3420987E0,5.3769546E0,1.1583237E1,6.4673514E0,4.6595726E0,2.2414629E1,3.2900813E0,5.065581E0,8.482122E0],"tree_param":{"num_deleted":"0","num_feature":"36","num_nodes":"65","size_leaf_vector":"1"}},{"base_weights":[1.626628E-2,4.9023252E-2,-2.2108595E-1,8.451967E-2,-1.407847E-1,-1.1455932E-1,-4.7589573E-1,5.878578E-2,3.937642E-1,-6.357885E-2,-3.4535873E-1,-2.04019E-2,-6.013521E-1,-7.393974E-1,-2.1368219E-1,1.1150993E-1,-2.0867458E-1,5.4583067E-1,-4.031827E-2,-1.10697076E-1,2.539569E-1,2.4372673E-2,-4.8632836E-1,6.680613E-2,-5.065086E-2,-8.80572E-2,-2.1057643E-2,-9.644037E-2,-3.209423E-2,1.2364243E-2,-5.1968034E-2,8.80664E-2,8.51049E-1,-4.621543E-1,4.388167E-2,7.2295797E-1,-8.407498E-3,2.8151361E-2,-1.4942168E-1,-2.3188868E-3,4.828649E-2,-2.7563566E-1,-6.242917E-2,-2.2020192E-1,1.7755502E-1,-2.6224418E-2,2.3952361E-2,-4.5818787E-2,1.1038504E-2,3.7247416E-2,1.0814911E-1,-3.59106E-2,-1.0902511E-1,8.446922E-2,-1.13054905E-2,9.804642E-2,2.6007447E-2,-1.8442163E-2,2.228375E-2,-6.0726404E-2,5.818495E-3,4.5500234E-2,-5.395623E-2,3.8280424E-2,-1.9410258E-2],"categories":[],"categories_nodes":[],"categories_segments":[],"categories_sizes":[],"default_left":[0,0,0,0,0,0,0,0,0,0,0,0,0,0,0,0,0,0,0,0,0,0,0,0,0,0,0,0,0,0,0,0,0,0,0,0,0,0,0,0,0,0,0,0,0,0,0,0,0,0,0,0,0,0,0,0,0,0,0,0,0,0,0,0,0],"id":14,"left_children":[1,3,5,7,9,11,13,15,17,19,21,23,25,27,29,31,33,35,-1,37,39,-1,41,43,-1,-1,-1,-1,-1,45,-1,47,49,51,53,55,-1,-1,57,-1,-1,59,-1,61,63,-1,-1,-1,-1,-1,-1,-1,-1,-1,-1,-1,-1,-1,-1,-1,-1,-1,-1,-1,-1],"loss_changes":[4.7242603E0,3.6065671E0,1.9460278E0,3.5587687E0,1.3115926E0,2.430294E0,1.3213706E0,5.899367E0,4.389241E0,9.6357965E-1,2.0209064E0,1.9706742E0,7.531431E-1,6.5771866E-1,8.4602195E-1,5.971157E0,4.4352665E0,3.3315134E0,0E0,8.795648E-1,5.429916E-1,0E0,3.7494087E-1,1.2985166E0,0E0,0E0,0E0,0E0,0E0,5.592251E-1,0E0,4.185158E0,7.661557E-1,1.841877E0,4.5518146E0,2.4846916E0,0E0,0E0,7.0348895E-1,0E0,0E0,1.0579228E0,0E0,2.7206495E0,2.2974422E0,0E0,0E0,0E0,0E0,0E0,0E0,0E0,0E0,0E0,0E0,0E0,0E0,0E0,0E0,0E0,0E0,0E0,0E0,0E0,0E0],"parents":[2147483647,0,0,1,1,2,2,3,3,4,4,5,5,6,6,7,7,8,8,9,9,10,10,11,11,12,12,13,13,14,14,15,15,16,16,17,17,19,19,20,20,22,22,23,23,29,29,31,31,32,32,33,33,34,34,35,35,38,38,41,41,43,43,44,44],"right_children":[2,4,6,8,10,12,14,16,18,20,22,24,26,28,30,32,34,36,-1,38,40,-1,42,44,-1,-1,-1,-1,-1,46,-1,48,50,52,54,56,-1,-1,58,-1,-1,60,-1,62,64,-1,-1,-1,-1,-1,-1,-1,-1,-1,-1,-1,-1,-1,-1,-1,-1,-1,-1,-1,-1],"split_conditions":[1E0,1E0,4.4E1,9E0,4E0,1E0,5.1E1,4E0,1E0,1E0,2E-1,1E0,1E0,1E0,1E0,3E0,7E0,1E0,-4.031827E-2,1E0,2.2E1,2.4372673E-2,2.7E1,1.9E1,-5.065086E-2,-8.80572E-2,-2.1057643E-2,-9.644037E-2,-3.209423E-2,7E-1,-5.1968034E-2,1.1E1,7E-1,1E0,2E1,1E0,-8.407498E-3,2.8151361E-2,1E0,-2.3188868E-3,4.828649E-2,7E0,-6.242917E-2,6.25E-1,1E0,-2.6224418E-2,2.3952361E-2,-4.5818787E-2,1.1038504E-2,3.7247416E-2,1.0814911E-1,-3.59106E-2,-1.0902511E-1,8.446922E-2,-1.13054905E-2,9.804642E-2,2.6007447E-2,-1.8442163E-2,2.228375E-2,-6.0726404E-2,5.818495E-3,4.5500234E-2,-5.395623E-2,3.8280424E-2,-1.9410258E-2],"split_indices":[6,7,17,31,31,13,17,31,24,10,33,11,28,28,28,27,31,4,0,21,17,0,17,17,0,0,0,0,0,32,0,17,32,13,17,32,0,0,30,0,0,31,0,33,32,0,0,0,0,0,0,0,0,0,0,0,0,0,0,0,0,0,0,0,0],"split_type":[0,0,0,0,0,0,0,0,0,0,0,0,0,0,0,0,0,0,0,0,0,0,0,0,0,0,0,0,0,0,0,0,0,0,0,0,0,0,0,0,0,0,0,0,0,0,0,0,0,0,0,0,0,0,0,0,0,0,0,0,0,0,0,0,0],"sum_hessian":[6.052325E2,5.325313E2,7.270117E1,4.49099E2,8.343231E1,5.229016E1,2.041101E1,4.1569675E2,3.340225E1,6.1524044E1,2.190827E1,4.4688286E1,7.6018777E0,9.272814E0,1.1138197E1,3.4773187E2,6.796489E1,2.83146E1,5.087649E0,5.4141525E1,7.382519E0,4.089615E0,1.7818655E1,3.8622025E1,6.066261E0,3.7027595E0,3.899118E0,5.181831E0,4.0909834E0,6.957878E0,4.1803184E0,3.381321E2,9.599768E0,3.3506237E1,3.4458656E1,2.1984821E1,6.329779E0,4.3018517E0,4.9839672E1,3.7459192E0,3.6365998E0,8.237116E0,9.581539E0,1.0478493E1,2.814353E1,3.0800352E0,3.877843E0,1.2506363E1,3.2562573E2,3.9704366E0,5.6293306E0,3.0134048E1,3.3721871E0,4.928303E0,2.9530352E1,1.34077835E1,8.577038E0,4.6017662E1,3.8220112E0,3.72121E0,4.5159054E0,3.2283204E0,7.250172E0,1.8111437E1,1.0032094E1],"tree_param":{"num_deleted":"0","num_feature":"36","num_nodes":"65","size_leaf_vector":"1"}},{"base_weights":[-5.6682285E-3,-3.950623E-2,2.887853E-1,-5.5791482E-2,5.373809E-1,-6.87242E-1,4.329426E-1,-8.4189214E-2,1.654762E-1,-1.200616E-2,7.600013E-1,-3.584576E-2,-9.0199165E-2,5.512346E-1,1.5077591E-1,6.3313134E-2,-1.4186433E-1,4.421595E-1,-8.2110904E-2,1.0704551E-1,4.611862E-2,3.1967916E-2,6.682954E-1,-2.5740344E-2,3.132903E-1,-1.1749573E-3,4.8220223E-1,-1.8418138E-1,9.5403254E-2,-3.3374976E-2,6.8282545E-1,-3.669068E-1,4.3271592E-1,-6.181547E-2,7.3792346E-2,7.3288846E-1,2.363808E-2,-6.7819245E-3,4.7359768E-1,7.908215E-3,-4.6799134E-2,-4.9532345E-3,1.1621249E-1,2.3145487E-3,-2.444139E-2,-4.8531592E-2,2.4668008E-2,8.287194E-2,1.7419735E-2,2.1217773E-2,-5.18347E-2,-3.1156618E-2,8.090753E-2,5.6985635E-2,9.262192E-2,8.504047E-2,-1.9271305E-2],"categories":[],"categories_nodes":[],"categories_segments":[],"categories_sizes":[],"default_left":[0,0,0,0,0,0,0,0,0,0,0,0,0,0,0,0,0,0,0,0,0,0,0,0,0,0,0,0,0,0,0,0,0,0,0,0,0,0,0,0,0,0,0,0,0,0,0,0,0,0,0,0,0,0,0,0,0],"id":15,"left_children":[1,3,5,7,9,11,13,15,17,-1,19,-1,-1,21,23,25,27,29,31,-1,-1,33,35,-1,37,39,41,43,45,-1,47,49,51,-1,-1,53,-1,-1,55,-1,-1,-1,-1,-1,-1,-1,-1,-1,-1,-1,-1,-1,-1,-1,-1,-1,-1],"loss_changes":[6.0303955E0,5.1285563E0,9.075302E0,3.336086E0,2.2857323E0,2.7082396E-1,1.7517052E0,4.000876E0,4.1790004E0,0E0,5.580673E-1,0E0,0E0,2.3101606E0,1.2490935E0,3.582353E0,3.4076667E0,5.590121E0,4.9618692E0,0E0,0E0,4.1766467E0,6.985922E-1,0E0,8.293706E-1,4.3792887E0,6.453858E0,3.5881615E0,4.667098E0,0E0,1.5064077E0,2.007074E0,3.648867E0,0E0,0E0,3.140154E-1,0E0,0E0,2.5015817E0,0E0,0E0,0E0,0E0,0E0,0E0,0E0,0E0,0E0,0E0,0E0,0E0,0E0,0E0,0E0,0E0,0E0,0E0],"parents":[2147483647,0,0,1,1,2,2,3,3,4,4,5,5,6,6,7,7,8,8,10,10,13,13,14,14,15,15,16,16,17,17,18,18,21,21,22,22,24,24,25,25,26,26,27,27,28,28,30,30,31,31,32,32,35,35,38,38],"right_children":[2,4,6,8,10,12,14,16,18,-1,20,-1,-1,22,24,26,28,30,32,-1,-1,34,36,-1,38,40,42,44,46,-1,48,50,52,-1,-1,54,-1,-1,56,-1,-1,-1,-1,-1,-1,-1,-1,-1,-1,-1,-1,-1,-1,-1,-1,-1,-1],"split_conditions":[1E0,3E0,1.8E1,1E0,3.8E1,1.2E1,3.5E1,1E0,2.9E1,-1.200616E-2,4.3E1,-3.584576E-2,-9.0199165E-2,1E0,1E0,8E0,1E0,1.7E1,1E0,1.0704551E-1,4.611862E-2,2.7E1,1E0,-2.5740344E-2,7.1428573E-1,1E0,2.7E1,2.2E1,1E0,-3.3374976E-2,2.6E1,4.2857143E-1,6.25E-1,-6.181547E-2,7.3792346E-2,6E-1,2.363808E-2,-6.7819245E-3,1E0,7.908215E-3,-4.6799134E-2,-4.9532345E-3,1.1621249E-1,2.3145487E-3,-2.444139E-2,-4.8531592E-2,2.4668008E-2,8.287194E-2,1.7419735E-2,2.1217773E-2,-5.18347E-2,-3.1156618E-2,8.090753E-2,5.6985635E-2,9.262192E-2,8.504047E-2,-1.9271305E-2],"split_indices":[12,27,17,16,17,17,17,21,17,0,17,0,0,21,20,31,3,17,24,0,0,17,1,0,33,15,17,17,18,0,17,33,33,0,0,35,0,0,28,0,0,0,0,0,0,0,0,0,0,0,0,0,0,0,0,0,0],"split_type":[0,0,0,0,0,0,0,0,0,0,0,0,0,0,0,0,0,0,0,0,0,0,0,0,0,0,0,0,0,0,0,0,0,0,0,0,0,0,0,0,0,0,0,0,0,0,0,0,0,0,0,0,0,0,0,0,0],"sum_hessian":[6.0309033E2,5.417046E2,6.1385757E1,5.277109E2,1.399374E1,7.4149566E0,5.39708E1,4.682364E2,5.9474445E1,3.6563873E0,1.0337353E1,3.9842343E0,3.4307225E0,3.73564E1,1.66144E1,1.3159315E2,3.3664325E2,2.7715723E1,3.1758724E1,3.8034394E0,6.533913E0,7.1064024E0,3.0249996E1,4.5649533E0,1.2049448E1,1.1490127E2,1.6691887E1,2.8587985E2,5.0763386E1,6.4699063E0,2.1245817E1,2.0632435E1,1.1126289E1,3.764241E0,3.3421614E0,2.5708448E1,4.541548E0,3.7385302E0,8.310918E0,9.875369E1,1.6147572E1,9.88694E0,6.804947E0,6.4495415E1,2.2138445E2,1.0034596E1,4.072879E1,1.6021046E1,5.224772E0,4.1940293E0,1.6438404E1,3.7945023E0,7.331787E0,1.6088715E1,9.619734E0,5.1322675E0,3.17865E0],"tree_param":{"num_deleted":"0","num_feature":"36","num_nodes":"57","size_leaf_vector":"1"}},{"base_weights":[-1.5652828E-2,-4.855804E-2,2.7792177E-1,-3.0159937E-2,-4.2052564E-1,4.754811E-2,5.5993825E-1,-4.427736E-2,4.2286813E-1,-5.307966E-1,1.608604E-2,-2.746676E-1,4.5867673E-1,-4.1983053E-3,6.51997E-1,5.759264E-2,-1.1116901E-1,-1.6369348E-2,5.8059275E-1,-4.00218E-1,-9.2004135E-2,-4.9522075E-1,3.2575466E-2,-9.108288E-3,6.298726E-1,8.789418E-1,2.4102076E-3,-2.879105E-2,7.065966E-1,-1.6168472E-1,2.3158075E-1,8.306745E-1,-6.963925E-3,6.887708E-3,-5.456823E-1,-8.572843E-2,-1.2588239E-1,2.8245358E-2,9.428411E-2,1.142332E0,2.550566E-2,-5.275417E-3,4.5228194E-2,7.803599E-2,2.666448E-2,-2.1688005E-2,1.5950687E-2,1.2528071E-2,7.705476E-2,1.086536E-1,2.857588E-2,-2.7599022E-2,-8.153453E-2,-3.1174988E-2,5.1502213E-3,1.3093941E-1,5.8590423E-2],"categories":[],"categories_nodes":[],"categories_segments":[],"categories_sizes":[],"default_left":[0,0,0,0,0,0,0,0,0,0,0,0,0,0,0,0,0,0,0,0,0,0,0,0,0,0,0,0,0,0,0,0,0,0,0,0,0,0,0,0,0,0,0,0,0,0,0,0,0,0,0,0,0,0,0,0,0],"id":16,"left_children":[1,3,5,7,9,11,13,15,17,19,-1,21,23,-1,25,27,29,-1,31,33,-1,35,-1,-1,37,39,-1,41,43,45,47,49,-1,-1,51,-1,53,-1,-1,55,-1,-1,-1,-1,-1,-1,-1,-1,-1,-1,-1,-1,-1,-1,-1,-1,-1],"loss_changes":[5.744613E0,3.6440144E0,3.867867E0,3.2819157E0,1.6949291E0,4.641355E0,1.515645E0,3.3843043E0,1.5303302E0,7.1622515E-1,0E0,2.7746613E0,1.5021496E0,0E0,3.3069725E0,1.1072823E1,5.2242513E0,0E0,2.0817685E0,1.2485325E0,0E0,1.875164E0,0E0,0E0,1.0202098E0,2.5230608E0,0E0,2.0406363E0,5.4471207E-1,4.673681E0,2.1316342E0,9.53588E-1,0E0,0E0,7.6825476E-1,0E0,2.9673594E-1,0E0,0E0,3.2558155E-1,0E0,0E0,0E0,0E0,0E0,0E0,0E0,0E0,0E0,0E0,0E0,0E0,0E0,0E0,0E0,0E0,0E0],"parents":[2147483647,0,0,1,1,2,2,3,3,4,4,5,5,6,6,7,7,8,8,9,9,11,11,12,12,14,14,15,15,16,16,18,18,19,19,21,21,24,24,25,25,27,27,28,28,29,29,30,30,31,31,34,34,36,36,39,39],"right_children":[2,4,6,8,10,12,14,16,18,20,-1,22,24,-1,26,28,30,-1,32,34,-1,36,-1,-1,38,40,-1,42,44,46,48,50,-1,-1,52,-1,54,-1,-1,56,-1,-1,-1,-1,-1,-1,-1,-1,-1,-1,-1,-1,-1,-1,-1,-1,-1],"split_conditions":[1E0,1E0,1E0,3E0,1E0,1E0,2.5E-1,2.5E1,3.8E1,5E0,1.608604E-2,1E0,4E-1,-4.1983053E-3,1E0,1E0,8E0,-1.6369348E-2,1E0,1E0,-9.2004135E-2,6E-1,3.2575466E-2,-9.108288E-3,3.5E1,1E0,2.4102076E-3,1E0,1E0,1E0,1E0,5.2E1,-6.963925E-3,6.887708E-3,5.4E1,-8.572843E-2,1E0,2.8245358E-2,9.428411E-2,1E0,2.550566E-2,-5.275417E-3,4.5228194E-2,7.803599E-2,2.666448E-2,-2.1688005E-2,1.5950687E-2,1.2528071E-2,7.705476E-2,1.086536E-1,2.857588E-2,-2.7599022E-2,-8.153453E-2,-3.1174988E-2,5.1502213E-3,1.3093941E-1,5.8590423E-2],"split_indices":[12,23,19,27,15,24,33,17,17,31,0,0,33,0,7,18,31,0,2,6,0,35,0,0,17,4,0,0,30,25,1,17,0,0,17,0,30,0,0,28,0,0,0,0,0,0,0,0,0,0,0,0,0,0,0,0,0],"split_type":[0,0,0,0,0,0,0,0,0,0,0,0,0,0,0,0,0,0,0,0,0,0,0,0,0,0,0,0,0,0,0,0,0,0,0,0,0,0,0,0,0,0,0,0,0,0,0,0,0,0,0,0,0,0,0,0,0],"sum_hessian":[5.9227515E2,5.333314E2,5.894369E1,5.0922543E2,2.4106014E1,3.308545E1,2.585824E1,4.9471133E2,1.4514106E1,2.0335934E1,3.770082E0,1.8734495E1,1.4350954E1,3.5023396E0,2.2355902E1,1.9614264E2,2.985687E2,3.0677216E0,1.1446384E1,1.6746302E1,3.5896318E0,1.38296585E1,4.9048367E0,3.5188544E0,1.08321E1,1.612713E1,6.2287707E0,1.7394576E2,2.2196882E1,2.6067737E2,3.7891315E1,8.06648E0,3.3799047E0,4.088419E0,1.2657883E1,6.316469E0,7.51319E0,6.0351343E0,4.796965E0,1.0755433E1,5.3716974E0,1.6654042E2,7.405341E0,1.8347038E1,3.849844E0,2.2272745E2,3.794993E1,3.267859E1,5.212728E0,4.812739E0,3.253741E0,7.340277E0,5.3176055E0,3.298973E0,4.2142167E0,7.231138E0,3.5242944E0],"tree_param":{"num_deleted":"0","num_feature":"36","num_nodes":"57","size_leaf_vector":"1"}},{"base_weights":[1.281444E-2,3.9010197E-2,-1.666936E-1,5.1823933E-2,-4.5990553E-1,-4.0408462E-1,-5.0962187E-2,8.608192E-2,-1.3737945E-1,-8.817791E-2,-4.8804074E-3,2.7943483E-2,-6.9664955E-1,-5.160488E-1,8.390525E-2,6.199504E-2,4.1671965E-1,1.7087883E-1,-2.8138483E-1,-8.570528E-2,-1.8819561E-2,-6.651962E-2,-1.8037485E-2,-8.578546E-2,2.4201536E-1,9.5523894E-2,-3.333947E-1,1.27799E-2,6.6291E-1,6.980813E-1,-1.2429073E-1,-1.1850377E-3,-4.9111822E-1,1.972998E-2,-5.0381333E-2,6.9016285E-2,7.869172E-2,1.559446E-2,-2.1706603E-3,-3.2691385E-3,-5.271895E-2,1.7869908E-2,-1.6664347E-2,4.3355547E-2,8.277058E-2,-1.5334509E-2,1.1819332E-1,-2.5265578E-2,2.9378844E-2,1.1325049E-2,-5.6525778E-2,-1.1080438E-1,-3.8405627E-2,2.6948897E-2,-1.8938217E-2,-5.6871003E-3,3.7952945E-2],"categories":[],"categories_nodes":[],"categories_segments":[],"categories_sizes":[],"default_left":[0,0,0,0,0,0,0,0,0,0,0,0,0,0,0,0,0,0,0,0,0,0,0,0,0,0,0,0,0,0,0,0,0,0,0,0,0,0,0,0,0,0,0,0,0,0,0,0,0,0,0,0,0,0,0,0,0],"id":17,"left_children":[1,3,5,7,9,11,13,15,17,-1,-1,-1,19,21,23,25,27,29,31,-1,-1,-1,-1,33,35,37,39,41,43,45,47,49,51,53,-1,-1,55,-1,-1,-1,-1,-1,-1,-1,-1,-1,-1,-1,-1,-1,-1,-1,-1,-1,-1,-1,-1],"loss_changes":[2.7984486E0,3.3413672E0,2.061903E0,3.297018E0,2.2281406E0,5.133649E0,3.3113842E0,3.3967245E0,3.5144184E0,0E0,0E0,0E0,1.2726183E0,4.733913E-1,1.1274813E0,5.357772E0,2.876132E0,4.0527124E0,3.1493983E0,0E0,0E0,0E0,0E0,9.200938E-1,1.5277691E0,2.6320693E0,1.8258448E0,3.8713187E-1,3.215909E-1,4.011938E0,9.966068E-1,1.6098719E0,1.5990376E0,9.61787E-1,0E0,0E0,7.1367943E-1,0E0,0E0,0E0,0E0,0E0,0E0,0E0,0E0,0E0,0E0,0E0,0E0,0E0,0E0,0E0,0E0,0E0,0E0,0E0,0E0],"parents":[2147483647,0,0,1,1,2,2,3,3,4,4,5,5,6,6,7,7,8,8,12,12,13,13,14,14,15,15,16,16,17,17,18,18,23,23,24,24,25,25,26,26,27,27,28,28,29,29,30,30,31,31,32,32,33,33,36,36],"right_children":[2,4,6,8,10,12,14,16,18,-1,-1,-1,20,22,24,26,28,30,32,-1,-1,-1,-1,34,36,38,40,42,44,46,48,50,52,54,-1,-1,56,-1,-1,-1,-1,-1,-1,-1,-1,-1,-1,-1,-1,-1,-1,-1,-1,-1,-1,-1,-1],"split_conditions":[1E0,6.4E1,7.1428573E-1,1E0,1E0,2.3E1,2E1,4.4E1,7E-1,-8.817791E-2,-4.8804074E-3,2.7943483E-2,1E0,1E0,5E0,4E1,7E-1,6.25E-1,2.4E1,-8.570528E-2,-1.8819561E-2,-6.651962E-2,-1.8037485E-2,1E0,1E0,1E0,1E0,1E0,1E0,2.4E1,3.4E1,1E0,2.7E1,1E0,-5.0381333E-2,6.9016285E-2,1E0,1.559446E-2,-2.1706603E-3,-3.2691385E-3,-5.271895E-2,1.7869908E-2,-1.6664347E-2,4.3355547E-2,8.277058E-2,-1.5334509E-2,1.1819332E-1,-2.5265578E-2,2.9378844E-2,1.1325049E-2,-5.6525778E-2,-1.1080438E-1,-3.8405627E-2,2.6948897E-2,-1.8938217E-2,-5.6871003E-3,3.7952945E-2],"split_indices":[6,17,33,7,0,17,17,17,32,0,0,0,30,29,26,17,32,33,17,0,0,0,0,13,19,32,21,30,32,17,17,10,17,21,0,0,29,0,0,0,0,0,0,0,0,0,0,0,0,0,0,0,0,0,0,0,0],"split_type":[0,0,0,0,0,0,0,0,0,0,0,0,0,0,0,0,0,0,0,0,0,0,0,0,0,0,0,0,0,0,0,0,0,0,0,0,0,0,0,0,0,0,0,0,0,0,0,0,0,0,0,0,0,0,0,0,0],"sum_hessian":[5.927342E2,5.1793427E2,7.47999E1,5.0583887E2,1.2095414E1,2.369814E1,5.110176E1,4.2875214E2,7.708671E1,5.4044414E0,6.690973E0,7.116572E0,1.6581568E1,1.0852135E1,4.0249626E1,4.0074542E2,2.8006714E1,2.4485779E1,5.2600933E1,1.2083842E1,4.497725E0,6.8339744E0,4.0181603E0,1.9634476E1,2.061515E1,3.70118E2,3.0627417E1,1.100388E1,1.7002834E1,8.29861E0,1.618717E1,2.294821E1,2.9652721E1,1.6438097E1,3.1963787E0,4.644704E0,1.5970447E1,2.4401976E2,1.2609826E2,1.2460958E1,1.816646E1,5.7191834E0,5.2846956E0,8.62703E0,8.375804E0,3.254606E0,5.044004E0,1.2687374E1,3.4997962E0,1.9742254E1,3.2059567E0,3.0023952E0,2.6650326E1,7.359428E0,9.07867E0,1.1568457E1,4.40199E0],"tree_param":{"num_deleted":"0","num_feature":"36","num_nodes":"57","size_leaf_vector":"1"}},{"base_weights":[9.066976E-3,4.4366963E-2,-2.0313407E-1,1.6704788E-2,2.6350343E-1,-2.6332703E-1,2.91538E-1,1.401704E-1,-5.3718634E-2,4.0810707E-1,-3.3726302E-1,-2.0988837E-1,-8.6753964E-2,7.423373E-2,-1.2829207E-2,5.199929E-2,7.6959777E-1,1.9461915E-1,-1.1888966E-1,1.1879393E-1,8.442115E-2,-6.971135E-2,-1.0450098E-3,-1.4575833E-1,-6.7002606E-1,1.524048E-2,6.964089E-2,4.1850615E-2,8.4394854E-1,5.1516008E-2,1.2019546E-1,-1.7245321E-1,1.5436926E-1,-4.149419E-2,6.0535163E-2,-1.9103764E-1,2.92114E-2,-8.72988E-2,-3.823529E-2,5.183544E-3,-8.8473946E-2,9.4164096E-2,3.7229057E-2,1.7469177E-2,-5.2727144E-2,-1.2028652E-2,-5.5273633E-2,-5.3234864E-2,2.937612E-2,-6.9402404E-2,2.6968947E-2,-1.1814496E-2,-5.918169E-2],"categories":[],"categories_nodes":[],"categories_segments":[],"categories_sizes":[],"default_left":[0,0,0,0,0,0,0,0,0,0,0,0,0,0,0,0,0,0,0,0,0,0,0,0,0,0,0,0,0,0,0,0,0,0,0,0,0,0,0,0,0,0,0,0,0,0,0,0,0,0,0,0,0],"id":18,"left_children":[1,3,5,7,9,11,13,15,17,19,21,23,-1,-1,-1,25,27,29,31,33,-1,-1,-1,35,37,39,-1,-1,41,43,-1,45,47,49,-1,51,-1,-1,-1,-1,-1,-1,-1,-1,-1,-1,-1,-1,-1,-1,-1,-1,-1],"loss_changes":[4.494252E0,3.1125412E0,2.624977E0,3.9865606E0,5.1385136E0,2.298348E0,1.942115E0,9.200009E0,4.7511697E0,5.8108125E0,1.3704835E0,2.0239599E0,0E0,0E0,0E0,3.474096E0,1.789236E-1,8.746839E0,3.4227426E0,2.3124626E0,0E0,0E0,0E0,1.3322686E0,1.6347837E-1,4.6631117E0,0E0,0E0,3.7923622E-1,3.9811726E0,0E0,3.7914796E0,3.8469906E0,4.856878E0,0E0,1.6523104E0,0E0,0E0,0E0,0E0,0E0,0E0,0E0,0E0,0E0,0E0,0E0,0E0,0E0,0E0,0E0,0E0,0E0],"parents":[2147483647,0,0,1,1,2,2,3,3,4,4,5,5,6,6,7,7,8,8,9,9,10,10,11,11,15,15,16,16,17,17,18,18,19,19,23,23,24,24,25,25,28,28,29,29,31,31,32,32,33,33,35,35],"right_children":[2,4,6,8,10,12,14,16,18,20,22,24,-1,-1,-1,26,28,30,32,34,-1,-1,-1,36,38,40,-1,-1,42,44,-1,46,48,50,-1,52,-1,-1,-1,-1,-1,-1,-1,-1,-1,-1,-1,-1,-1,-1,-1,-1,-1],"split_conditions":[1E0,8E0,1E0,2.5E1,3.8E1,4E1,2.5E1,1E0,1E0,2.9E1,4.7E1,8E0,-8.6753964E-2,7.423373E-2,-1.2829207E-2,7E0,4.2857143E-1,1E0,1E0,7E-1,8.442115E-2,-6.971135E-2,-1.0450098E-3,3.3E1,2.5E1,1E0,6.964089E-2,4.1850615E-2,6E-1,4E0,1.2019546E-1,4E0,2E-1,9E0,6.0535163E-2,1E0,2.92114E-2,-8.72988E-2,-3.823529E-2,5.183544E-3,-8.8473946E-2,9.4164096E-2,3.7229057E-2,1.7469177E-2,-5.2727144E-2,-1.2028652E-2,-5.5273633E-2,-5.3234864E-2,2.937612E-2,-6.9402404E-2,2.6968947E-2,-1.1814496E-2,-5.918169E-2],"split_indices":[7,31,16,17,17,17,17,18,21,17,17,31,0,0,0,31,33,14,25,35,0,0,0,17,17,3,0,0,35,31,0,31,33,31,0,14,0,0,0,0,0,0,0,0,0,0,0,0,0,0,0,0,0],"split_type":[0,0,0,0,0,0,0,0,0,0,0,0,0,0,0,0,0,0,0,0,0,0,0,0,0,0,0,0,0,0,0,0,0,0,0,0,0,0,0,0,0,0,0,0,0,0,0,0,0,0,0,0,0],"sum_hessian":[5.977749E2,5.13195E2,8.4579895E1,4.5662967E2,5.656534E1,7.582143E1,8.758468E0,1.6549506E2,2.911346E2,4.585E1,1.0715341E1,7.089831E1,4.923117E0,3.8530295E0,4.9054384E0,1.4611032E2,1.9384735E1,6.0107067E1,2.3102754E2,2.8328905E1,1.7521091E1,4.5606203E0,6.154721E0,6.338151E1,7.516798E0,1.3919398E2,6.91634E0,4.546155E0,1.483858E1,5.3550735E1,6.556333E0,1.9347246E2,3.7555096E1,2.1997066E1,6.331839E0,5.7952496E1,5.4290133E0,3.214336E0,4.302462E0,1.3466081E2,4.5331707E0,1.1467019E1,3.371561E0,4.472968E1,8.821055E0,1.7129128E2,2.2181181E1,5.86111E0,3.1693985E1,6.7056103E0,1.5291456E1,5.0129807E1,7.822691E0],"tree_param":{"num_deleted":"0","num_feature":"36","num_nodes":"53","size_leaf_vector":"1"}},{"base_weights":[-4.8921723E-3,-2.2454388E-1,2.7823182E-2,-2.823718E-1,1.4358327E-1,2.209113E-1,-2.9814348E-2,-3.8972172E-1,-6.5106995E-2,6.0379054E-2,-1.18562495E-2,9.1406666E-2,7.471759E-1,-6.5606155E-2,2.0246565E-1,-3.2015973E-1,-7.754853E-2,-1.5132561E-1,2.9192105E-2,2.2887995E-2,7.089401E-2,8.169823E-1,3.8389437E-2,-2.9636692E-2,-3.2021952E-1,5.082035E-1,-3.050226E-2,-2.329483E-1,-6.488458E-2,-3.3955586E-1,6.902856E-2,1.617592E-1,-1.4411311E-1,6.4875114E-1,1.0961127E-1,-6.96781E-2,3.2915115E-1,-2.3388788E-1,-6.361649E-2,9.955467E-2,7.653316E-1,1.9899195E-1,-4.1929546E-1,-4.81187E-2,-5.714834E-3,-5.4671217E-2,-1.4307125E-3,2.4536235E-2,-6.6561634E-3,3.943392E-2,-1.8221384E-2,2.0443723E-3,-6.637208E-2,8.710983E-2,2.3200866E-2,-2.7340685E-3,-3.681276E-2,7.2333984E-2,8.310581E-3,-1.4577033E-2,-7.073565E-2,4.2952888E-2,-2.2941912E-2,2.6864296E-2,1.0922723E-1,5.483064E-2,-4.999758E-3,-5.9326388E-2,-1.6553523E-2],"categories":[],"categories_nodes":[],"categories_segments":[],"categories_sizes":[],"default_left":[0,0,0,0,0,0,0,0,0,0,0,0,0,0,0,0,0,0,0,0,0,0,0,0,0,0,0,0,0,0,0,0,0,0,0,0,0,0,0,0,0,0,0,0,0,0,0,0,0,0,0,0,0,0,0,0,0,0,0,0,0,0,0,0,0,0,0,0,0],"id":19,"left_children":[1,3,5,7,9,11,13,15,17,-1,-1,19,21,23,25,27,-1,29,-1,31,-1,33,-1,35,37,39,41,43,-1,45,47,49,51,53,-1,55,57,59,-1,61,63,65,67,-1,-1,-1,-1,-1,-1,-1,-1,-1,-1,-1,-1,-1,-1,-1,-1,-1,-1,-1,-1,-1,-1,-1,-1,-1,-1],"loss_changes":[4.277259E0,1.6830983E0,5.7736354E0,1.5377717E0,1.415292E0,8.058549E0,3.3383682E0,9.500513E-1,7.6338446E-1,0E0,0E0,4.0810537E0,2.8001213E-1,3.1712532E0,3.836448E0,9.82193E-1,0E0,8.313395E-1,0E0,2.0687182E0,0E0,1.6935349E-1,0E0,4.4106817E0,1.0210528E0,2.3674002E0,2.8841348E0,1.4041903E0,0E0,7.1134484E-1,2.507466E-1,3.961881E0,3.4826136E0,1.1089664E0,0E0,3.4720492E0,2.930798E0,1.3682221E0,0E0,1.1982964E0,2.0002327E0,1.8031265E0,4.303434E-1,0E0,0E0,0E0,0E0,0E0,0E0,0E0,0E0,0E0,0E0,0E0,0E0,0E0,0E0,0E0,0E0,0E0,0E0,0E0,0E0,0E0,0E0,0E0,0E0,0E0,0E0],"parents":[2147483647,0,0,1,1,2,2,3,3,4,4,5,5,6,6,7,7,8,8,11,11,12,12,13,13,14,14,15,15,17,17,19,19,21,21,23,23,24,24,25,25,26,26,27,27,29,29,30,30,31,31,32,32,33,33,35,35,36,36,37,37,39,39,40,40,41,41,42,42],"right_children":[2,4,6,8,10,12,14,16,18,-1,-1,20,22,24,26,28,-1,30,-1,32,-1,34,-1,36,38,40,42,44,-1,46,48,50,52,54,-1,56,58,60,-1,62,64,66,68,-1,-1,-1,-1,-1,-1,-1,-1,-1,-1,-1,-1,-1,-1,-1,-1,-1,-1,-1,-1,-1,-1,-1,-1,-1,-1],"split_conditions":[1.9E1,1E0,2.4E1,7E-1,7E-1,1E0,1E0,1E0,4E0,6.0379054E-2,-1.18562495E-2,1E0,7E-1,1E0,1E0,1E0,-7.754853E-2,1.1E1,2.9192105E-2,1E0,7.089401E-2,2.2E1,3.8389437E-2,8E0,1E0,7E-1,1E0,1.3E1,-6.488458E-2,1E0,1E0,4E0,2.2E1,1E0,1.0961127E-1,4E0,1E0,8E0,-6.361649E-2,1E0,1E0,3.6E1,1E0,-4.81187E-2,-5.714834E-3,-5.4671217E-2,-1.4307125E-3,2.4536235E-2,-6.6561634E-3,3.943392E-2,-1.8221384E-2,2.0443723E-3,-6.637208E-2,8.710983E-2,2.3200866E-2,-2.7340685E-3,-3.681276E-2,7.2333984E-2,8.310581E-3,-1.4577033E-2,-7.073565E-2,4.2952888E-2,-2.2941912E-2,2.6864296E-2,1.0922723E-1,5.483064E-2,-4.999758E-3,-5.9326388E-2,-1.6553523E-2],"split_indices":[17,9,17,35,32,18,25,15,31,0,0,16,35,15,18,13,0,17,0,28,0,17,0,31,1,32,28,17,0,28,28,31,17,32,0,31,19,31,0,2,2,17,0,0,0,0,0,0,0,0,0,0,0,0,0,0,0,0,0,0,0,0,0,0,0,0,0,0,0],"split_type":[0,0,0,0,0,0,0,0,0,0,0,0,0,0,0,0,0,0,0,0,0,0,0,0,0,0,0,0,0,0,0,0,0,0,0,0,0,0,0,0,0,0,0,0,0,0,0,0,0,0,0,0,0,0,0,0,0,0,0,0,0,0,0,0,0,0,0,0,0],"sum_hessian":[5.933531E2,7.615862E1,5.1719446E2,6.602061E1,1.0138011E1,1.18242935E2,3.989515E2,4.3656357E1,2.2364254E1,3.206177E0,6.9318337E0,9.5833626E1,2.2409313E1,3.4630695E2,5.2644554E1,3.8537163E1,5.119194E0,1.8478127E1,3.8861268E0,8.719584E1,8.637785E0,1.7749716E1,4.659597E0,3.0441797E2,4.1889E1,2.2255667E1,3.0388887E1,3.1806545E1,6.730616E0,9.673718E0,8.804408E0,4.7624588E1,3.9571247E1,1.3149022E1,4.6006937E0,2.7458008E2,2.9837866E1,3.4266113E1,7.622888E0,9.131048E0,1.31246195E1,1.9416203E1,1.0972685E1,1.2466322E1,1.9340223E1,5.493752E0,4.179966E0,3.4752672E0,5.329141E0,2.8325598E1,1.9298992E1,3.0783077E1,8.788171E0,7.863374E0,5.285648E0,2.4142383E2,3.3156265E1,1.0721351E1,1.9116516E1,2.9992134E1,4.2739787E0,4.405993E0,4.7250547E0,5.932954E0,7.1916656E0,7.5799503E0,1.1836253E1,5.7160707E0,5.256614E0],"tree_param":{"num_deleted":"0","num_feature":"36","num_nodes":"69","size_leaf_vector":"1"}},{"base_weights":[-1.1845703E-2,-4.3743547E-2,2.4157456E-1,-2.961348E-3,-1.9028567E-1,1.2115688E-1,6.0923165E-1,3.536153E-1,-2.8000673E-2,-4.8890647E-1,-3.9977793E-2,2.0304784E-1,-3.220425E-1,2.9899418E-1,1.0194548E-1,4.339126E-1,-2.0183727E-2,-1.1325984E-1,5.971912E-2,-5.842316E-1,1.5698997E-2,-1.0295051E-1,5.8259445E-1,4.043355E-1,6.3533485E-2,-7.430188E-2,1.9739686E-2,1.1304106E-2,4.114848E-2,8.465438E-2,3.0712023E-1,-1.5135753E-1,1.290748E-1,1.2038286E-1,-3.491384E-1,-7.114915E-1,7.55585E-3,-1.8519887E-1,2.0481625E-1,-9.705267E-4,1.0048306E-1,-2.7296557E-3,5.831562E-1,3.325555E-1,-1.0529024E-1,-2.3971123E-3,4.8623946E-2,-3.416359E-2,-6.420139E-3,5.157457E-2,-5.2768826E-3,2.8468266E-2,-6.3981335E-3,9.687662E-4,-5.041795E-2,-8.4613234E-2,-4.179368E-2,2.3598175E-3,-3.712619E-2,-5.007404E-2,5.1088285E-2,7.484688E-2,1.128326E-2,5.4462403E-2,-1.080059E-2,-2.7292108E-2,2.4906455E-2],"categories":[],"categories_nodes":[],"categories_segments":[],"categories_sizes":[],"default_left":[0,0,0,0,0,0,0,0,0,0,0,0,0,0,0,0,0,0,0,0,0,0,0,0,0,0,0,0,0,0,0,0,0,0,0,0,0,0,0,0,0,0,0,0,0,0,0,0,0,0,0,0,0,0,0,0,0,0,0,0,0,0,0,0,0,0,0],"id":20,"left_children":[1,3,5,7,9,11,13,15,17,19,21,23,25,27,-1,29,-1,31,33,35,-1,37,39,41,43,-1,-1,-1,-1,-1,45,47,49,51,53,55,-1,57,59,-1,-1,-1,61,63,65,-1,-1,-1,-1,-1,-1,-1,-1,-1,-1,-1,-1,-1,-1,-1,-1,-1,-1,-1,-1,-1,-1],"loss_changes":[4.838459E0,3.1747937E0,2.8890812E0,3.7300766E0,5.1717815E0,1.9403714E0,1.7649612E0,1.3102121E0,2.9254355E0,2.4704838E0,3.1188846E0,1.2160463E0,1.993027E0,1.7678791E-1,0E0,1.0096564E0,0E0,1.8498354E0,4.8291187E0,2.8983307E0,0E0,1.8530484E0,1.8397193E0,1.3986733E0,1.2750204E0,0E0,0E0,0E0,0E0,0E0,1.2056308E0,2.826775E0,1.9588957E0,5.1317096E0,1.4064627E0,7.7267075E-1,0E0,2.227429E0,3.6238585E0,0E0,0E0,0E0,9.038925E-1,1.0648419E0,1.1095548E0,0E0,0E0,0E0,0E0,0E0,0E0,0E0,0E0,0E0,0E0,0E0,0E0,0E0,0E0,0E0,0E0,0E0,0E0,0E0,0E0,0E0,0E0],"parents":[2147483647,0,0,1,1,2,2,3,3,4,4,5,5,6,6,7,7,8,8,9,9,10,10,11,11,12,12,13,13,15,15,17,17,18,18,19,19,21,21,22,22,23,23,24,24,30,30,31,31,32,32,33,33,34,34,35,35,37,37,38,38,42,42,43,43,44,44],"right_children":[2,4,6,8,10,12,14,16,18,20,22,24,26,28,-1,30,-1,32,34,36,-1,38,40,42,44,-1,-1,-1,-1,-1,46,48,50,52,54,56,-1,58,60,-1,-1,-1,62,64,66,-1,-1,-1,-1,-1,-1,-1,-1,-1,-1,-1,-1,-1,-1,-1,-1,-1,-1,-1,-1,-1,-1],"split_conditions":[1E0,4E0,1E0,3E0,7E0,7E0,6E0,1E0,1E0,1E0,1E0,1E0,9E0,1E0,1.0194548E-1,1E0,-2.0183727E-2,1E0,1E0,1E0,1.5698997E-2,1E1,9E0,7.1428573E-1,1E0,-7.430188E-2,1.9739686E-2,1.1304106E-2,4.114848E-2,8.465438E-2,7E-1,5E0,5E0,6E0,7E-1,2E0,7.55585E-3,1E0,7E-1,-9.705267E-4,1.0048306E-1,-2.7296557E-3,1E0,1E0,1E0,-2.3971123E-3,4.8623946E-2,-3.416359E-2,-6.420139E-3,5.157457E-2,-5.2768826E-3,2.8468266E-2,-6.3981335E-3,9.687662E-4,-5.041795E-2,-8.4613234E-2,-4.179368E-2,2.3598175E-3,-3.712619E-2,-5.007404E-2,5.1088285E-2,7.484688E-2,1.128326E-2,5.4462403E-2,-1.080059E-2,-2.7292108E-2,2.4906455E-2],"split_indices":[10,31,24,26,31,31,26,8,19,11,12,21,31,2,0,2,0,9,11,9,0,31,31,33,20,0,0,0,0,0,32,26,26,26,32,20,0,20,32,0,0,0,19,32,29,0,0,0,0,0,0,0,0,0,0,0,0,0,0,0,0,0,0,0,0,0,0],"split_type":[0,0,0,0,0,0,0,0,0,0,0,0,0,0,0,0,0,0,0,0,0,0,0,0,0,0,0,0,0,0,0,0,0,0,0,0,0,0,0,0,0,0,0,0,0,0,0,0,0,0,0,0,0,0,0,0,0,0,0,0,0,0,0,0,0,0,0],"sum_hessian":[5.962482E2,5.3032404E2,6.592416E1,4.156658E2,1.1465825E2,5.066088E1,1.5263275E1,2.6412455E1,3.8925333E2,3.7635017E1,7.702323E1,4.321737E1,7.443514E0,9.675153E0,5.5881224E0,2.326765E1,3.144804E0,1.9724759E2,1.9200575E2,3.287814E1,4.7568765E0,7.070601E1,6.3172235E0,1.6914873E1,2.6302496E1,3.8736856E0,3.569828E0,4.4024897E0,5.2726636E0,4.134801E0,1.913285E1,1.7077525E2,2.6472343E1,1.6781235E2,2.4193394E1,2.7496311E1,5.3818297E0,5.6109432E1,1.4596576E1,3.0357637E0,3.2814598E0,5.203112E0,1.17117605E1,9.767717E0,1.6534779E1,7.0210404E0,1.211181E1,5.273183E1,1.1804342E2,7.880053E0,1.8592289E1,8.844696E1,7.9365395E1,7.582356E0,1.6611038E1,1.7559954E1,9.936357E0,2.685092E1,2.9258514E1,4.223757E0,1.0372819E1,8.22825E0,3.483511E0,6.4343E0,3.3334174E0,1.1380795E1,5.1539836E0],"tree_param":{"num_deleted":"0","num_feature":"36","num_nodes":"67","size_leaf_vector":"1"}},{"base_weights":[2.3442857E-2,1.4197842E-4,2.0020421E-1,7.4637597E-3,-8.022853E-2,2.9706383E-1,-2.278098E-2,-1.169583E-3,6.301314E-2,2.092084E-1,6.7516685E-2,3.332799E-2,-1.0655337E-1,7.4326284E-3,-5.279236E-2,5.125968E-1,7.813897E-2,-2.6384426E-2,1.9625446E-2,-1.4792515E-1,3.3200707E-2,7.823955E-2,2.897044E-1,-2.0209609E-1,3.380318E-1,-2.2186195E-2,4.47841E-2,2.0644179E-2,-1.2380625E-3,-1.0071666E-2,7.0078194E-2,-3.9759703E-2,-6.6374983E-3,9.230507E-2,1.0207863E-2],"categories":[],"categories_nodes":[],"categories_segments":[],"categories_sizes":[],"default_left":[0,0,0,0,0,0,0,0,0,0,0,0,0,0,0,0,0,0,0,0,0,0,0,0,0,0,0,0,0,0,0,0,0,0,0],"id":21,"left_children":[1,3,5,7,-1,9,11,13,-1,15,-1,-1,17,19,-1,21,23,-1,-1,25,27,-1,29,31,33,-1,-1,-1,-1,-1,-1,-1,-1,-1,-1],"loss_changes":[2.4337206E0,3.0791996E0,1.4931743E0,2.7925725E0,0E0,1.4549174E0,6.848679E-1,2.3295386E0,0E0,1.5680339E0,0E0,0E0,9.272621E-1,2.0304806E0,0E0,4.9618673E-1,2.2109761E0,0E0,0E0,3.2782419E0,3.4360714E0,0E0,1.3818612E0,3.658195E-1,2.0643945E0,0E0,0E0,0E0,0E0,0E0,0E0,0E0,0E0,0E0,0E0],"parents":[2147483647,0,0,1,1,2,2,3,3,5,5,6,6,7,7,9,9,12,12,13,13,15,15,16,16,19,19,20,20,22,22,23,23,24,24],"right_children":[2,4,6,8,-1,10,12,14,-1,16,-1,-1,18,20,-1,22,24,-1,-1,26,28,-1,30,32,34,-1,-1,-1,-1,-1,-1,-1,-1,-1,-1],"split_conditions":[1E0,7.2E1,1E0,5.6E1,-8.022853E-2,1E0,5E0,5.4E1,6.301314E-2,1E0,6.7516685E-2,3.332799E-2,6E0,1.9E1,-5.279236E-2,2.8E1,2.8E1,-2.6384426E-2,1.9625446E-2,9E-1,2.2E1,7.823955E-2,3.9E1,1E0,3.6E1,-2.2186195E-2,4.47841E-2,2.0644179E-2,-1.2380625E-3,-1.0071666E-2,7.0078194E-2,-3.9759703E-2,-6.6374983E-3,9.230507E-2,1.0207863E-2],"split_indices":[0,17,29,17,0,8,26,17,0,18,0,0,26,17,0,17,17,0,0,35,17,0,17,33,17,0,0,0,0,0,0,0,0,0,0],"split_type":[0,0,0,0,0,0,0,0,0,0,0,0,0,0,0,0,0,0,0,0,0,0,0,0,0,0,0,0,0,0,0,0,0,0,0],"sum_hessian":[5.8990295E2,5.220823E2,6.782066E1,5.183433E2,3.7389472E0,4.705071E1,2.0769958E1,5.1223926E2,6.104121E0,3.943984E1,7.6108694E0,3.3886514E0,1.7381306E1,5.0497852E2,7.2607145E0,1.1020241E1,2.84196E1,1.152396E1,5.8573465E0,7.1166916E1,4.3381158E2,3.8499267E0,7.170314E0,1.3781637E1,1.4637961E1,6.3868237E1,7.298682E0,8.9629074E1,3.4418253E2,4.0647807E0,3.1055334E0,4.85651E0,8.925127E0,3.370122E0,1.1267839E1],"tree_param":{"num_deleted":"0","num_feature":"36","num_nodes":"35","size_leaf_vector":"1"}},{"base_weights":[-1.9116553E-2,-4.272045E-2,1.5569907E-1,-3.4067076E-2,-8.207395E-2,6.867663E-2,6.2452316E-1,-4.33472E-2,7.5508595E-2,-3.6775306E-2,3.112565E-1,9.4221875E-2,9.253598E-3,-6.984519E-2,1.8912572E-1,-9.818089E-2,3.8302403E-2,1.01426125E-1,7.313377E-2,-3.5504695E-2,-2.8209358E-1,-5.399043E-2,2.9543307E-1,-4.1870567E-1,3.2092754E-2,3.7164044E-1,-4.658043E-2,-6.8690754E-3,1.538101E-2,-7.560709E-2,-1.5150129E-2,7.0812996E-3,4.693915E-2,-1.4765232E-2,-7.379737E-2,-2.2724206E-2,3.352044E-2,4.759774E-4,7.6796584E-2],"categories":[],"categories_nodes":[],"categories_segments":[],"categories_sizes":[],"default_left":[0,0,0,0,0,0,0,0,0,0,0,0,0,0,0,0,0,0,0,0,0,0,0,0,0,0,0,0,0,0,0,0,0,0,0,0,0,0,0],"id":22,"left_children":[1,3,5,7,-1,9,11,13,-1,15,17,-1,-1,19,21,23,-1,25,-1,27,29,-1,31,33,35,37,-1,-1,-1,-1,-1,-1,-1,-1,-1,-1,-1,-1,-1],"loss_changes":[2.436891E0,3.4707885E0,2.8243113E0,3.8043613E0,0E0,1.5564742E0,1.7514691E0,3.1546466E0,0E0,1.1458662E0,1.5482478E0,0E0,0E0,3.3319938E0,4.224433E0,1.6127834E0,0E0,2.2324796E0,0E0,2.497274E0,3.828979E0,0E0,1.7806511E0,8.5507166E-1,2.289939E0,1.4004841E0,0E0,0E0,0E0,0E0,0E0,0E0,0E0,0E0,0E0,0E0,0E0,0E0,0E0],"parents":[2147483647,0,0,1,1,2,2,3,3,5,5,6,6,7,7,9,9,10,10,13,13,14,14,15,15,17,17,19,19,20,20,22,22,23,23,24,24,25,25],"right_children":[2,4,6,8,-1,10,12,14,-1,16,18,-1,-1,20,22,24,-1,26,-1,28,30,-1,32,34,36,38,-1,-1,-1,-1,-1,-1,-1,-1,-1,-1,-1,-1,-1],"split_conditions":[1E0,7.2E1,1E0,5.6E1,-8.207395E-2,1E0,1E0,1E0,7.5508595E-2,1E0,4E1,9.4221875E-2,9.253598E-3,4E1,1.7E1,4.2857143E-1,3.8302403E-2,3.6E1,7.313377E-2,3.4E1,4.1E1,-5.399043E-2,1E0,2.5E-1,3.1E1,1E0,-4.658043E-2,-6.8690754E-3,1.538101E-2,-7.560709E-2,-1.5150129E-2,7.0812996E-3,4.693915E-2,-1.4765232E-2,-7.379737E-2,-2.2724206E-2,3.352044E-2,4.759774E-4,7.6796584E-2],"split_indices":[0,17,8,17,0,30,32,12,0,19,17,0,0,17,17,33,0,17,0,17,17,0,19,33,17,32,0,0,0,0,0,0,0,0,0,0,0,0,0],"split_type":[0,0,0,0,0,0,0,0,0,0,0,0,0,0,0,0,0,0,0,0,0,0,0,0,0,0,0,0,0,0,0,0,0,0,0,0,0,0,0],"sum_hessian":[5.879591E2,5.186815E2,6.92776E1,5.1400836E2,4.673174E0,5.939861E1,9.878997E0,5.0896814E2,5.040189E0,4.199246E1,1.7406149E1,5.702444E0,4.1765532E0,4.5751834E2,5.144982E1,3.7302246E1,4.690212E0,1.2435877E1,4.9702716E0,3.9480807E2,6.2710255E1,6.02858E0,4.542124E1,1.0139936E1,2.716231E1,8.656807E0,3.77907E0,3.3646448E2,5.8343597E1,1.2511377E1,5.019888E1,2.0438076E1,2.4983164E1,6.275019E0,3.8649178E0,1.47731085E1,1.2389201E1,5.020921E0,3.635886E0],"tree_param":{"num_deleted":"0","num_feature":"36","num_nodes":"39","size_leaf_vector":"1"}},{"base_weights":[-8.314147E-3,1.7399211E-1,-4.3024443E-2,-3.0075985E-1,2.2131327E-1,-6.5599225E-2,1.642828E-1,4.282641E-2,-9.237885E-2,6.026242E-1,1.18665665E-1,-8.0632314E-2,3.8021967E-1,2.69065E-1,-4.563652E-1,8.798959E-1,-1.5869781E-2,1.9816104E-1,-5.4491933E-2,-2.7389246E-1,-4.0726297E-2,8.0150396E-2,1.8893105E-1,6.448759E-1,7.28619E-2,-1.3330271E-2,-7.092E-2,3.9202515E-2,1.0023578E-1,4.9221992E-1,5.3785454E-2,-3.4747863E-1,2.1697773E-1,5.2567057E-2,-9.660841E-2,5.4579116E-2,-2.1623015E-2,9.6073784E-2,4.7026765E-2,-3.5660005E-1,2.8907084E-1,7.9022E-2,-1.704126E-2,2.4795808E-2,-3.492738E-2,-4.170131E-2,2.3134692E-2,5.825596E-2,-5.0222324E-3,-7.8044686E-4,4.7563557E-2,-1.4804256E-2,2.2153081E-2,-6.849094E-3,-7.0238546E-2,6.613642E-2,-9.524878E-3],"categories":[],"categories_nodes":[],"categories_segments":[],"categories_sizes":[],"default_left":[0,0,0,0,0,0,0,0,0,0,0,0,0,0,0,0,0,0,0,0,0,0,0,0,0,0,0,0,0,0,0,0,0,0,0,0,0,0,0,0,0,0,0,0,0,0,0,0,0,0,0,0,0,0,0,0,0],"id":23,"left_children":[1,3,5,7,9,11,13,-1,-1,15,17,19,21,23,25,27,-1,29,-1,31,33,-1,35,37,39,-1,-1,-1,-1,41,43,45,47,49,51,-1,-1,-1,-1,53,55,-1,-1,-1,-1,-1,-1,-1,-1,-1,-1,-1,-1,-1,-1,-1,-1],"loss_changes":[3.7992594E0,2.2241447E0,2.3702788E0,4.5420084E0,3.3693275E0,3.0826306E0,3.3611853E0,0E0,0E0,4.023839E0,3.827476E0,3.3926468E0,1.059756E0,3.1407883E0,5.2326345E-1,4.2203522E-1,0E0,2.6778772E0,0E0,2.7975569E0,1.9183478E0,0E0,1.8016737E0,3.5902166E-1,2.8451495E0,0E0,0E0,0E0,0E0,4.252469E0,3.5181248E0,2.7497048E0,1.0490968E0,3.5315769E0,3.794123E0,0E0,0E0,0E0,0E0,9.8165286E-1,2.952434E0,0E0,0E0,0E0,0E0,0E0,0E0,0E0,0E0,0E0,0E0,0E0,0E0,0E0,0E0,0E0,0E0],"parents":[2147483647,0,0,1,1,2,2,3,3,4,4,5,5,6,6,9,9,10,10,11,11,12,12,13,13,14,14,15,15,17,17,19,19,20,20,22,22,23,23,24,24,29,29,30,30,31,31,32,32,33,33,34,34,39,39,40,40],"right_children":[2,4,6,8,10,12,14,-1,-1,16,18,20,22,24,26,28,-1,30,-1,32,34,-1,36,38,40,-1,-1,-1,-1,42,44,46,48,50,52,-1,-1,-1,-1,54,56,-1,-1,-1,-1,-1,-1,-1,-1,-1,-1,-1,-1,-1,-1,-1,-1],"split_conditions":[2.5E-1,1.2E1,1E0,1E0,1E0,3E0,1E0,4.282641E-2,-9.237885E-2,4E0,1E0,1E0,8E-1,2.6E1,1.4E1,1.7E1,-1.5869781E-2,2.6E1,-5.4491933E-2,1E0,2.5E1,8.0150396E-2,4.8E1,5.714286E-1,1E0,-1.3330271E-2,-7.092E-2,3.9202515E-2,1.0023578E-1,1E0,1E0,1E0,1E0,1E0,1E0,5.4579116E-2,-2.1623015E-2,9.6073784E-2,4.7026765E-2,3E0,1E0,7.9022E-2,-1.704126E-2,2.4795808E-2,-3.492738E-2,-4.170131E-2,2.3134692E-2,5.825596E-2,-5.0222324E-3,-7.8044686E-4,4.7563557E-2,-1.4804256E-2,2.2153081E-2,-6.849094E-3,-7.0238546E-2,6.613642E-2,-9.524878E-3],"split_indices":[33,17,16,31,21,27,5,0,0,31,9,33,33,17,17,17,0,17,0,1,17,0,17,33,18,0,0,0,0,7,29,12,21,10,25,0,0,0,0,31,19,0,0,0,0,0,0,0,0,0,0,0,0,0,0,0,0],"split_type":[0,0,0,0,0,0,0,0,0,0,0,0,0,0,0,0,0,0,0,0,0,0,0,0,0,0,0,0,0,0,0,0,0,0,0,0,0,0,0,0,0,0,0,0,0,0,0,0,0,0,0,0,0,0,0,0,0],"sum_hessian":[5.982147E2,9.5038506E1,5.0317624E2,8.128923E0,8.6909584E1,4.5437994E2,4.879627E1,3.889876E0,4.2390475E0,1.7400423E1,6.9509155E1,4.403504E2,1.4029553E1,4.223272E1,6.563549E0,1.2640892E1,4.7595325E0,6.2699352E1,6.809805E0,7.4361755E1,3.6598865E2,3.3848684E0,1.0644686E1,1.3701618E1,2.8531103E1,3.552076E0,3.0114732E0,3.379329E0,9.261562E0,1.9853392E1,4.2845963E1,6.492151E1,9.440243E0,1.3712398E2,2.2886467E2,5.4751534E0,5.169532E0,3.2749922E0,1.0426625E1,9.3364725E0,1.919463E1,1.3561809E1,6.2915826E0,2.9175539E1,1.3670423E1,5.8208466E1,6.7130446E0,3.4878905E0,5.9523525E0,1.2085905E2,1.6264935E1,1.9747343E2,3.1391235E1,5.7465277E0,3.589945E0,9.383699E0,9.81093E0],"tree_param":{"num_deleted":"0","num_feature":"36","num_nodes":"57","size_leaf_vector":"1"}},{"base_weights":[2.3505157E-2,4.819616E-2,-1.5556479E-1,7.542307E-2,-1.2668654E-1,-1.0920352E-1,-7.606278E-2,4.906328E-2,2.8338397E-1,7.890549E-2,-3.628011E-1,-1.936695E-1,8.219033E-2,1.692269E-1,2.0826936E-3,-6.9636896E-2,4.8108298E-1,3.2192737E-1,-3.386796E-1,-8.37714E-1,-1.1206695E-1,-5.9297718E-2,-4.88663E-1,-5.9327234E-2,5.1015776E-2,1.1490825E-1,5.335742E-1,-6.0511607E-1,2.375944E-2,3.4883726E-1,-3.3599076E-1,5.8425266E-1,-7.2658034E-3,-1.5709478E-1,5.3119373E-1,-6.4791435E-1,1.4155159E-2,-9.6417926E-2,-4.291867E-2,4.229214E-2,-2.3465939E-1,-2.655247E-1,2.1572869E-1,-7.147776E-2,-2.4567874E-1,-3.558802E-2,1.3509062E-1,1.4402377E-2,-3.6784474E-2,7.30588E-2,6.6902908E-3,-2.8034886E-2,-7.823754E-2,8.412647E-3,-1.1483182E-2,-3.2539312E-3,6.9115005E-2,-1.1669744E-2,-6.547019E-2,6.8491355E-2,1.0866852E-2,-4.6071984E-2,2.4780996E-2,6.771093E-2,-5.610515E-3,-3.4971334E-2,-9.095924E-2,-4.8080087E-2,6.1408486E-3,1.55762425E-2,-5.4801386E-2,4.6647854E-2,-2.102228E-2,-4.1887354E-2,-7.313765E-3,-1.5750894E-2,2.9395843E-2],"categories":[],"categories_nodes":[],"categories_segments":[],"categories_sizes":[],"default_left":[0,0,0,0,0,0,0,0,0,0,0,0,0,0,0,0,0,0,0,0,0,0,0,0,0,0,0,0,0,0,0,0,0,0,0,0,0,0,0,0,0,0,0,0,0,0,0,0,0,0,0,0,0,0,0,0,0,0,0,0,0,0,0,0,0,0,0,0,0,0,0,0,0,0,0,0,0],"id":24,"left_children":[1,3,5,7,9,11,-1,13,15,17,19,21,23,25,27,29,31,33,35,37,39,41,43,45,-1,47,49,51,53,55,57,59,-1,61,63,65,-1,-1,-1,-1,67,69,71,-1,73,-1,75,-1,-1,-1,-1,-1,-1,-1,-1,-1,-1,-1,-1,-1,-1,-1,-1,-1,-1,-1,-1,-1,-1,-1,-1,-1,-1,-1,-1,-1,-1],"loss_changes":[2.6148632E0,2.4808626E0,1.92811E0,2.4514027E0,3.4408216E0,1.1113585E0,0E0,2.2597263E0,3.5497708E0,4.005535E0,3.8232641E0,1.8463746E0,1.3293761E0,2.1654594E0,3.815955E0,2.230519E0,1.8947139E0,2.5678382E0,2.261697E0,1.6545725E-1,1.5869694E0,1.9654355E0,6.302924E-1,1.0291011E0,0E0,1.4471778E0,1.2680345E0,3.5596228E-1,2.3508503E0,1.0492399E0,7.6894E-1,1.2392435E0,0E0,1.1354201E0,1.5356727E0,3.8949847E-1,0E0,0E0,0E0,0E0,1.4212834E0,2.426803E0,1.6968001E0,0E0,2.2618163E-1,0E0,5.5774236E-1,0E0,0E0,0E0,0E0,0E0,0E0,0E0,0E0,0E0,0E0,0E0,0E0,0E0,0E0,0E0,0E0,0E0,0E0,0E0,0E0,0E0,0E0,0E0,0E0,0E0,0E0,0E0,0E0,0E0,0E0],"parents":[2147483647,0,0,1,1,2,2,3,3,4,4,5,5,7,7,8,8,9,9,10,10,11,11,12,12,13,13,14,14,15,15,16,16,17,17,18,18,19,19,20,20,21,21,22,22,23,23,25,25,26,26,27,27,28,28,29,29,30,30,31,31,33,33,34,34,35,35,40,40,41,41,42,42,44,44,46,46],"right_children":[2,4,6,8,10,12,-1,14,16,18,20,22,24,26,28,30,32,34,36,38,40,42,44,46,-1,48,50,52,54,56,58,60,-1,62,64,66,-1,-1,-1,-1,68,70,72,-1,74,-1,76,-1,-1,-1,-1,-1,-1,-1,-1,-1,-1,-1,-1,-1,-1,-1,-1,-1,-1,-1,-1,-1,-1,-1,-1,-1,-1,-1,-1,-1,-1],"split_conditions":[1E0,1E0,7E0,1E0,1E0,1E0,-7.606278E-2,6E-1,6E0,2E0,7E-1,6E0,1E0,4.2857143E-1,7.1428573E-1,1E0,1E0,6.25E-1,1E0,2E0,4E0,1E0,1E0,7E-1,5.1015776E-2,1E0,1E0,7E-1,6E0,1E0,1E0,1E0,-7.2658034E-3,4E0,5E0,1E0,1.4155159E-2,-9.6417926E-2,-4.291867E-2,4.229214E-2,6E0,1E0,3E0,-7.147776E-2,1E0,-3.558802E-2,5E0,1.4402377E-2,-3.6784474E-2,7.30588E-2,6.6902908E-3,-2.8034886E-2,-7.823754E-2,8.412647E-3,-1.1483182E-2,-3.2539312E-3,6.9115005E-2,-1.1669744E-2,-6.547019E-2,6.8491355E-2,1.0866852E-2,-4.6071984E-2,2.4780996E-2,6.771093E-2,-5.610515E-3,-3.4971334E-2,-9.095924E-2,-4.8080087E-2,6.1408486E-3,1.55762425E-2,-5.4801386E-2,4.6647854E-2,-2.102228E-2,-4.1887354E-2,-7.313765E-3,-1.5750894E-2,2.9395843E-2],"split_indices":[15,13,26,3,28,29,0,33,26,20,32,26,25,33,33,19,8,33,19,20,26,19,28,32,0,23,24,32,26,30,28,9,0,31,31,32,0,0,0,0,26,28,31,0,19,0,26,0,0,0,0,0,0,0,0,0,0,0,0,0,0,0,0,0,0,0,0,0,0,0,0,0,0,0,0,0,0],"split_type":[0,0,0,0,0,0,0,0,0,0,0,0,0,0,0,0,0,0,0,0,0,0,0,0,0,0,0,0,0,0,0,0,0,0,0,0,0,0,0,0,0,0,0,0,0,0,0,0,0,0,0,0,0,0,0,0,0,0,0,0,0,0,0,0,0,0,0,0,0,0,0,0,0,0,0,0,0],"sum_hessian":[5.8871277E2,5.1801697E2,7.069576E1,4.487252E2,6.929182E1,6.676088E1,3.9348829E0,3.9934296E2,4.9382225E1,3.73959E1,3.1895918E1,4.6311E1,2.0449875E1,1.11515205E2,2.8782776E2,1.7959908E1,3.1422318E1,2.3783627E1,1.3612275E1,1.0212149E1,2.168377E1,3.2642918E1,1.3668085E1,1.6015385E1,4.434491E0,9.8191696E1,1.3323508E1,8.993401E0,2.7883435E2,6.8648005E0,1.1095108E1,2.6440907E1,4.981411E0,7.3069425E0,1.6476685E1,8.06793E0,5.544345E0,6.7595134E0,3.4526358E0,3.5857759E0,1.8097992E1,1.86745E1,1.3968417E1,6.074063E0,7.594022E0,6.013014E0,1.000237E1,9.326822E1,4.9234776E0,8.970795E0,4.3527136E0,4.08698E0,4.9064207E0,1.9450543E2,8.432891E1,3.6751711E0,3.189629E0,7.381989E0,3.7131188E0,2.1458834E1,4.9820714E0,4.0969353E0,3.2100074E0,1.3075203E1,3.4014814E0,4.862821E0,3.2051094E0,9.54152E0,8.556473E0,7.6758347E0,1.0998665E1,8.73257E0,5.235848E0,3.0773442E0,4.5166774E0,3.5227652E0,6.479605E0],"tree_param":{"num_deleted":"0","num_feature":"36","num_nodes":"77","size_leaf_vector":"1"}},{"base_weights":[-3.7192705E-3,5.4587005E-3,-4.6245304E-1,-2.7064357E-3,6.400551E-1,-6.755458E-2,1.0330837E-3,-2.5753409E-2,1.9709428E-1,8.748589E-2,2.6717758E-2,-4.9271297E-2,1.3230717E-1,-5.9117656E-2,2.888362E-1,-1.3186428E-2,-1.7303652E-1,5.5811197E-1,-5.230824E-2,1.5593158E-1,4.242722E-1,-4.082747E-3,3.5356786E-2,-8.402211E-3,-6.0480714E-2,2.0344539E-2,1.2476619E-1,5.695174E-2,-2.0741316E-2,7.732405E-2,3.5646071E-3,6.6238694E-2,4.1418252E-4],"categories":[],"categories_nodes":[],"categories_segments":[],"categories_sizes":[],"default_left":[0,0,0,0,0,0,0,0,0,0,0,0,0,0,0,0,0,0,0,0,0,0,0,0,0,0,0,0,0,0,0,0,0],"id":25,"left_children":[1,3,5,7,9,-1,-1,11,13,-1,-1,15,17,-1,19,21,23,25,27,29,31,-1,-1,-1,-1,-1,-1,-1,-1,-1,-1,-1,-1],"loss_changes":[2.5142946E0,3.0374653E0,1.1870804E0,2.6732135E0,4.182353E-1,0E0,0E0,1.9409215E0,4.512686E0,0E0,0E0,2.0240283E0,5.3488355E0,0E0,9.13991E-1,3.5866184E0,3.8824904E0,4.7724133E0,4.7591205E0,2.130547E0,2.6371212E0,0E0,0E0,0E0,0E0,0E0,0E0,0E0,0E0,0E0,0E0,0E0,0E0],"parents":[2147483647,0,0,1,1,2,2,3,3,4,4,7,7,8,8,11,11,12,12,14,14,15,15,16,16,17,17,18,18,19,19,20,20],"right_children":[2,4,6,8,10,-1,-1,12,14,-1,-1,16,18,-1,20,22,24,26,28,30,32,-1,-1,-1,-1,-1,-1,-1,-1,-1,-1,-1,-1],"split_conditions":[7.2E1,5.6E1,1E0,1E0,1E0,-6.755458E-2,1.0330837E-3,1E0,1.7E1,8.748589E-2,2.6717758E-2,4E0,1E0,-5.9117656E-2,1E0,4.3E1,3.9E1,3.1E1,2.2E1,2E-1,1E0,-4.082747E-3,3.5356786E-2,-8.402211E-3,-6.0480714E-2,2.0344539E-2,1.2476619E-1,5.695174E-2,-2.0741316E-2,7.732405E-2,3.5646071E-3,6.6238694E-2,4.1418252E-4],"split_indices":[17,17,30,12,21,0,0,14,17,0,0,31,21,0,19,17,17,17,17,33,29,0,0,0,0,0,0,0,0,0,0,0,0],"split_type":[0,0,0,0,0,0,0,0,0,0,0,0,0,0,0,0,0,0,0,0,0,0,0,0,0,0,0,0,0,0,0,0,0],"sum_hessian":[5.9558527E2,5.8487177E2,1.0713535E1,5.7842505E2,6.446663E0,7.0893583E0,3.6241772E0,5.193852E2,5.9039875E1,3.1296582E0,3.317005E0,4.52714E2,6.6671196E1,5.5874157E0,5.345246E1,3.513742E2,1.0133979E2,1.955216E1,4.7119038E1,2.8064161E1,2.5388298E1,3.2757468E2,2.3799528E1,8.500885E1,1.633094E1,1.376648E1,5.78568E0,8.873357E0,3.824568E1,3.6914012E0,2.437276E1,1.5836259E1,9.55204E0],"tree_param":{"num_deleted":"0","num_feature":"36","num_nodes":"33","size_leaf_vector":"1"}},{"base_weights":[-2.9837588E-2,-5.9325166E-2,1.8365261E-1,-8.63211E-2,1.423137E-1,-8.211265E-2,5.903367E-1,-1.5402786E-1,-1.5322826E-3,2.636223E-1,-2.2453E-1,5.5296445E-1,-3.8020858E-1,7.111409E-1,-3.0921955E-2,-2.2978945E-1,2.1792619E-2,-2.0630719E-1,4.0193353E-2,-2.2175469E-2,4.5070583E-1,-4.4589385E-1,4.1534044E-2,7.519417E-2,3.2418113E-2,-2.4963264E-1,-1.0661947E-1,9.41545E-1,1.5022738E-1,1.09620124E-1,-2.577553E-1,-1.1969382E-1,4.5516616E-1,-3.1271085E-1,2.383971E-2,4.7933698E-1,-2.3134178E-2,1.6732763E-1,-4.791792E-2,5.67165E-1,-3.5169893E-3,-6.483597E-1,7.945264E-3,-8.4991455E-2,-4.2706925E-2,1.0636506E-1,4.2947896E-2,3.2256894E-2,-9.795514E-3,-5.51981E-2,6.1823368E-2,-4.0854607E-2,-1.6354322E-2,-4.5109247E-3,-6.2722825E-2,7.464253E-2,2.824822E-2,-1.970592E-2,-8.061161E-2,1.1047492E-1,6.079904E-3,-4.3211732E-2,1.8735277E-3,-9.689325E-3,3.1849038E-2,6.725672E-2,1.7568236E-2,-3.1058272E-2,-9.456013E-2,-2.9843315E-2,2.0749606E-2],"categories":[],"categories_nodes":[],"categories_segments":[],"categories_sizes":[],"default_left":[0,0,0,0,0,0,0,0,0,0,0,0,0,0,0,0,0,0,0,0,0,0,0,0,0,0,0,0,0,0,0,0,0,0,0,0,0,0,0,0,0,0,0,0,0,0,0,0,0,0,0,0,0,0,0,0,0,0,0,0,0,0,0,0,0,0,0,0,0,0,0],"id":26,"left_children":[1,3,5,7,9,11,13,15,17,19,21,23,25,27,-1,29,31,33,35,37,39,41,-1,-1,-1,43,-1,45,47,49,51,53,55,57,-1,59,61,63,-1,65,-1,67,-1,69,-1,-1,-1,-1,-1,-1,-1,-1,-1,-1,-1,-1,-1,-1,-1,-1,-1,-1,-1,-1,-1,-1,-1,-1,-1,-1,-1],"loss_changes":[3.6990788E0,2.8184724E0,7.7595005E0,2.6133735E0,2.7847672E0,8.544837E0,3.297288E0,3.3767385E0,1.7440509E0,2.4955535E0,2.4175515E0,4.1499472E-1,2.470687E0,3.1242294E0,0E0,1.7081776E0,4.7844014E0,1.7093959E0,4.7275486E0,1.7554781E0,1.6123753E0,1.3482778E0,0E0,0E0,0E0,7.5170577E-1,0E0,6.512518E-1,3.9718282E-1,5.1109023E0,2.2603312E0,2.2030413E0,7.545271E-1,1.4567189E0,0E0,5.5398784E0,2.5625687E0,6.0661596E-1,0E0,8.2097006E-1,0E0,6.0081935E-1,0E0,1.01334E0,0E0,0E0,0E0,0E0,0E0,0E0,0E0,0E0,0E0,0E0,0E0,0E0,0E0,0E0,0E0,0E0,0E0,0E0,0E0,0E0,0E0,0E0,0E0,0E0,0E0,0E0,0E0],"parents":[2147483647,0,0,1,1,2,2,3,3,4,4,5,5,6,6,7,7,8,8,9,9,10,10,11,11,12,12,13,13,15,15,16,16,17,17,18,18,19,19,20,20,21,21,25,25,27,27,28,28,29,29,30,30,31,31,32,32,33,33,35,35,36,36,37,37,39,39,41,41,43,43],"right_children":[2,4,6,8,10,12,14,16,18,20,22,24,26,28,-1,30,32,34,36,38,40,42,-1,-1,-1,44,-1,46,48,50,52,54,56,58,-1,60,62,64,-1,66,-1,68,-1,70,-1,-1,-1,-1,-1,-1,-1,-1,-1,-1,-1,-1,-1,-1,-1,-1,-1,-1,-1,-1,-1,-1,-1,-1,-1,-1,-1],"split_conditions":[1E0,1E0,3.1E1,6E-1,3.7E1,2.3E1,1E0,1E0,2.1E1,5E0,1E0,1E0,1E0,4E0,-3.0921955E-2,1.4E1,3.6E1,9E-1,2.2E1,7E-1,7E0,1E0,4.1534044E-2,7.519417E-2,3.2418113E-2,3E1,-1.0661947E-1,6E0,3.6E1,1E0,1E0,1E0,1E0,1E0,2.383971E-2,3E0,2.3E1,2.2E1,-4.791792E-2,1E0,-3.5169893E-3,6E0,7.945264E-3,2.7E1,-4.2706925E-2,1.0636506E-1,4.2947896E-2,3.2256894E-2,-9.795514E-3,-5.51981E-2,6.1823368E-2,-4.0854607E-2,-1.6354322E-2,-4.5109247E-3,-6.2722825E-2,7.464253E-2,2.824822E-2,-1.970592E-2,-8.061161E-2,1.1047492E-1,6.079904E-3,-4.3211732E-2,1.8735277E-3,-9.689325E-3,3.1849038E-2,6.725672E-2,1.7568236E-2,-3.1058272E-2,-9.456013E-2,-2.9843315E-2,2.0749606E-2],"split_indices":[1,10,17,35,17,17,15,24,17,26,29,28,9,31,0,17,17,35,17,35,31,27,0,0,0,17,0,26,17,5,19,9,2,13,0,31,17,17,0,25,0,26,0,17,0,0,0,0,0,0,0,0,0,0,0,0,0,0,0,0,0,0,0,0,0,0,0,0,0,0,0],"split_type":[0,0,0,0,0,0,0,0,0,0,0,0,0,0,0,0,0,0,0,0,0,0,0,0,0,0,0,0,0,0,0,0,0,0,0,0,0,0,0,0,0,0,0,0,0,0,0,0,0,0,0,0,0,0,0,0,0,0,0,0,0,0,0,0,0,0,0,0,0,0,0],"sum_hessian":[5.848622E2,5.145183E2,7.0343895E1,4.5427118E2,6.024711E1,4.302527E1,2.7318628E1,2.5212456E2,2.0214664E2,4.5486813E1,1.4760294E1,1.3471017E1,2.9554253E1,2.4268932E1,3.0496957E0,1.7598508E2,7.6139465E1,3.355009E1,1.6859654E2,1.8344437E1,2.7142376E1,1.1191673E1,3.5686212E0,5.9818163E0,7.4892E0,2.5974052E1,3.5802004E0,1.6721653E1,7.5472784E0,1.3174322E1,1.6281076E2,5.7945435E1,1.8194035E1,2.7312004E1,6.2380853E0,2.0420662E1,1.4817587E2,1.3415406E1,4.92903E0,2.1759542E1,5.3828335E0,7.909309E0,3.2823641E0,1.4239965E1,1.1734087E1,1.26322365E1,4.089418E0,4.2773204E0,3.269958E0,5.688932E0,7.48539E0,6.1323406E1,1.0148736E2,5.147048E1,6.474951E0,5.5353265E0,1.2658709E1,2.3259485E1,4.052518E0,7.52968E0,1.2890982E1,1.2895113E1,1.3528076E2,5.0126653E0,8.402741E0,1.6578087E1,5.1814566E0,4.659391E0,3.249918E0,8.220649E0,6.0193167E0],"tree_param":{"num_deleted":"0","num_feature":"36","num_nodes":"71","size_leaf_vector":"1"}},{"base_weights":[3.1732585E-2,1.3243133E-1,-3.0047173E-2,1.013165E-1,4.569375E-1,1.7186573E-1,-8.328785E-2,-1.7337516E-2,1.9192761E-1,5.4513943E-1,3.0463052E-3,8.340826E-2,7.2331196E-1,-1.6363469E-1,7.256989E-2,-1.1137979E-1,2.6992875E-1,4.2091486E-1,1.1174328E-1,2.1505775E-2,6.197737E-1,2.0599826E-1,-3.2752264E-1,1.0709033E-1,9.777697E-3,-1.829879E-1,7.218031E-2,1.6588812E-1,-5.6594807E-1,-2.5448872E-2,-7.322846E-1,-3.0427513E-1,6.688278E-2,5.2038574E-1,-4.1220724E-3,7.622298E-2,3.432607E-1,3.927787E-2,9.115326E-2,3.7423208E-1,-3.8648665E-1,-5.014425E-1,7.8330645E-3,-9.8517254E-2,-3.661333E-1,3.5696387E-2,4.1183922E-1,-8.758213E-2,-2.8796453E-2,4.7506213E-2,-9.614196E-3,-8.997097E-2,-3.882176E-2,-4.4994775E-2,-8.481719E-3,2.7169852E-2,7.753313E-2,2.909931E-2,7.8339846E-4,-3.880579E-2,6.663727E-2,4.620137E-2,-3.6563464E-2,-4.933426E-2,-1.8372288E-2,-8.718949E-2,-8.480485E-3,2.8667634E-2,-1.3177899E-2,-2.6375541E-2,-9.945556E-2,8.41724E-3,-6.003071E-2,-3.0011764E-2,5.4787427E-2],"categories":[],